digraph Tree {
node [shape=box, style="filled", color="black", fontname="helvetica"] ;
edge [fontname="helvetica"] ;
0 [label="Age <= 43.5\ngini = 0.323\nsamples = 7000\nvalue = [5585, 1415]\nclass = not_churn", fillcolor="#eca16b"] ;
1 [label="NumOfProducts <= 2.5\ngini = 0.218\nsamples = 5217\nvalue = [4568, 649]\nclass = not_churn", fillcolor="#e99355"] ;
0 -> 1 [labeldistance=2.5, labelangle=45, headlabel="True"] ;
2 [label="NumOfProducts <= 1.5\ngini = 0.192\nsamples = 5088\nvalue = [4540, 548]\nclass = not_churn", fillcolor="#e89051"] ;
1 -> 2 ;
3 [label="Age <= 41.5\ngini = 0.283\nsamples = 2533\nvalue = [2100, 433]\nclass = not_churn", fillcolor="#ea9b62"] ;
2 -> 3 ;
4 [label="IsActiveMember <= 0.5\ngini = 0.259\nsamples = 2311\nvalue = [1958, 353]\nclass = not_churn", fillcolor="#ea985d"] ;
3 -> 4 ;
5 [label="Age <= 38.5\ngini = 0.315\nsamples = 1143\nvalue = [919, 224]\nclass = not_churn", fillcolor="#eba069"] ;
4 -> 5 ;
6 [label="Geography <= 0.5\ngini = 0.28\nsamples = 922\nvalue = [767, 155]\nclass = not_churn", fillcolor="#ea9a61"] ;
5 -> 6 ;
7 [label="Balance <= 188370.438\ngini = 0.22\nsamples = 486\nvalue = [425, 61]\nclass = not_churn", fillcolor="#e99355"] ;
6 -> 7 ;
8 [label="Balance <= 47865.129\ngini = 0.207\nsamples = 478\nvalue = [422, 56]\nclass = not_churn", fillcolor="#e89253"] ;
7 -> 8 ;
9 [label="Age <= 29.5\ngini = 0.345\nsamples = 113\nvalue = [88, 25]\nclass = not_churn", fillcolor="#eca571"] ;
8 -> 9 ;
10 [label="EstimatedSalary <= 75521.762\ngini = 0.157\nsamples = 35\nvalue = [32, 3]\nclass = not_churn", fillcolor="#e78d4c"] ;
9 -> 10 ;
11 [label="gini = 0.0\nsamples = 15\nvalue = [15, 0]\nclass = not_churn", fillcolor="#e58139"] ;
10 -> 11 ;
12 [label="EstimatedSalary <= 79589.48\ngini = 0.255\nsamples = 20\nvalue = [17, 3]\nclass = not_churn", fillcolor="#ea975c"] ;
10 -> 12 ;
13 [label="gini = 0.0\nsamples = 1\nvalue = [0, 1]\nclass = churn", fillcolor="#399de5"] ;
12 -> 13 ;
14 [label="Gender <= 0.5\ngini = 0.188\nsamples = 19\nvalue = [17, 2]\nclass = not_churn", fillcolor="#e89050"] ;
12 -> 14 ;
15 [label="Tenure <= 4.0\ngini = 0.48\nsamples = 5\nvalue = [3, 2]\nclass = not_churn", fillcolor="#f6d5bd"] ;
14 -> 15 ;
16 [label="gini = 0.0\nsamples = 2\nvalue = [2, 0]\nclass = not_churn", fillcolor="#e58139"] ;
15 -> 16 ;
17 [label="Tenure <= 7.5\ngini = 0.444\nsamples = 3\nvalue = [1, 2]\nclass = churn", fillcolor="#9ccef2"] ;
15 -> 17 ;
18 [label="gini = 0.0\nsamples = 2\nvalue = [0, 2]\nclass = churn", fillcolor="#399de5"] ;
17 -> 18 ;
19 [label="gini = 0.0\nsamples = 1\nvalue = [1, 0]\nclass = not_churn", fillcolor="#e58139"] ;
17 -> 19 ;
20 [label="gini = 0.0\nsamples = 14\nvalue = [14, 0]\nclass = not_churn", fillcolor="#e58139"] ;
14 -> 20 ;
21 [label="CreditScore <= 759.0\ngini = 0.405\nsamples = 78\nvalue = [56, 22]\nclass = not_churn", fillcolor="#efb287"] ;
9 -> 21 ;
22 [label="Tenure <= 7.5\ngini = 0.368\nsamples = 70\nvalue = [53, 17]\nclass = not_churn", fillcolor="#eda979"] ;
21 -> 22 ;
23 [label="CreditScore <= 565.5\ngini = 0.291\nsamples = 51\nvalue = [42, 9]\nclass = not_churn", fillcolor="#eb9c63"] ;
22 -> 23 ;
24 [label="gini = 0.0\nsamples = 14\nvalue = [14, 0]\nclass = not_churn", fillcolor="#e58139"] ;
23 -> 24 ;
25 [label="CreditScore <= 609.0\ngini = 0.368\nsamples = 37\nvalue = [28, 9]\nclass = not_churn", fillcolor="#edaa79"] ;
23 -> 25 ;
26 [label="Age <= 33.5\ngini = 0.408\nsamples = 7\nvalue = [2, 5]\nclass = churn", fillcolor="#88c4ef"] ;
25 -> 26 ;
27 [label="gini = 0.0\nsamples = 4\nvalue = [0, 4]\nclass = churn", fillcolor="#399de5"] ;
26 -> 27 ;
28 [label="Age <= 36.0\ngini = 0.444\nsamples = 3\nvalue = [2, 1]\nclass = not_churn", fillcolor="#f2c09c"] ;
26 -> 28 ;
29 [label="gini = 0.0\nsamples = 1\nvalue = [1, 0]\nclass = not_churn", fillcolor="#e58139"] ;
28 -> 29 ;
30 [label="Tenure <= 3.0\ngini = 0.5\nsamples = 2\nvalue = [1, 1]\nclass = not_churn", fillcolor="#ffffff"] ;
28 -> 30 ;
31 [label="gini = 0.0\nsamples = 1\nvalue = [1, 0]\nclass = not_churn", fillcolor="#e58139"] ;
30 -> 31 ;
32 [label="gini = 0.0\nsamples = 1\nvalue = [0, 1]\nclass = churn", fillcolor="#399de5"] ;
30 -> 32 ;
33 [label="EstimatedSalary <= 133265.719\ngini = 0.231\nsamples = 30\nvalue = [26, 4]\nclass = not_churn", fillcolor="#e99457"] ;
25 -> 33 ;
34 [label="gini = 0.0\nsamples = 18\nvalue = [18, 0]\nclass = not_churn", fillcolor="#e58139"] ;
33 -> 34 ;
35 [label="EstimatedSalary <= 150045.711\ngini = 0.444\nsamples = 12\nvalue = [8, 4]\nclass = not_churn", fillcolor="#f2c09c"] ;
33 -> 35 ;
36 [label="gini = 0.0\nsamples = 4\nvalue = [0, 4]\nclass = churn", fillcolor="#399de5"] ;
35 -> 36 ;
37 [label="gini = 0.0\nsamples = 8\nvalue = [8, 0]\nclass = not_churn", fillcolor="#e58139"] ;
35 -> 37 ;
38 [label="EstimatedSalary <= 120941.824\ngini = 0.488\nsamples = 19\nvalue = [11, 8]\nclass = not_churn", fillcolor="#f8ddc9"] ;
22 -> 38 ;
39 [label="Balance <= 21078.539\ngini = 0.43\nsamples = 16\nvalue = [11, 5]\nclass = not_churn", fillcolor="#f1ba93"] ;
38 -> 39 ;
40 [label="EstimatedSalary <= 5362.01\ngini = 0.391\nsamples = 15\nvalue = [11, 4]\nclass = not_churn", fillcolor="#eeaf81"] ;
39 -> 40 ;
41 [label="gini = 0.0\nsamples = 1\nvalue = [0, 1]\nclass = churn", fillcolor="#399de5"] ;
40 -> 41 ;
42 [label="CreditScore <= 560.0\ngini = 0.337\nsamples = 14\nvalue = [11, 3]\nclass = not_churn", fillcolor="#eca36f"] ;
40 -> 42 ;
43 [label="EstimatedSalary <= 89237.434\ngini = 0.5\nsamples = 4\nvalue = [2, 2]\nclass = not_churn", fillcolor="#ffffff"] ;
42 -> 43 ;
44 [label="gini = 0.0\nsamples = 2\nvalue = [0, 2]\nclass = churn", fillcolor="#399de5"] ;
43 -> 44 ;
45 [label="gini = 0.0\nsamples = 2\nvalue = [2, 0]\nclass = not_churn", fillcolor="#e58139"] ;
43 -> 45 ;
46 [label="EstimatedSalary <= 112409.445\ngini = 0.18\nsamples = 10\nvalue = [9, 1]\nclass = not_churn", fillcolor="#e88f4f"] ;
42 -> 46 ;
47 [label="gini = 0.0\nsamples = 9\nvalue = [9, 0]\nclass = not_churn", fillcolor="#e58139"] ;
46 -> 47 ;
48 [label="gini = 0.0\nsamples = 1\nvalue = [0, 1]\nclass = churn", fillcolor="#399de5"] ;
46 -> 48 ;
49 [label="gini = 0.0\nsamples = 1\nvalue = [0, 1]\nclass = churn", fillcolor="#399de5"] ;
39 -> 49 ;
50 [label="gini = 0.0\nsamples = 3\nvalue = [0, 3]\nclass = churn", fillcolor="#399de5"] ;
38 -> 50 ;
51 [label="CreditScore <= 787.5\ngini = 0.469\nsamples = 8\nvalue = [3, 5]\nclass = churn", fillcolor="#b0d8f5"] ;
21 -> 51 ;
52 [label="Age <= 35.0\ngini = 0.278\nsamples = 6\nvalue = [1, 5]\nclass = churn", fillcolor="#61b1ea"] ;
51 -> 52 ;
53 [label="gini = 0.0\nsamples = 4\nvalue = [0, 4]\nclass = churn", fillcolor="#399de5"] ;
52 -> 53 ;
54 [label="CreditScore <= 768.5\ngini = 0.5\nsamples = 2\nvalue = [1, 1]\nclass = not_churn", fillcolor="#ffffff"] ;
52 -> 54 ;
55 [label="gini = 0.0\nsamples = 1\nvalue = [0, 1]\nclass = churn", fillcolor="#399de5"] ;
54 -> 55 ;
56 [label="gini = 0.0\nsamples = 1\nvalue = [1, 0]\nclass = not_churn", fillcolor="#e58139"] ;
54 -> 56 ;
57 [label="gini = 0.0\nsamples = 2\nvalue = [2, 0]\nclass = not_churn", fillcolor="#e58139"] ;
51 -> 57 ;
58 [label="Tenure <= 3.5\ngini = 0.155\nsamples = 365\nvalue = [334, 31]\nclass = not_churn", fillcolor="#e78d4b"] ;
8 -> 58 ;
59 [label="CreditScore <= 667.5\ngini = 0.058\nsamples = 134\nvalue = [130, 4]\nclass = not_churn", fillcolor="#e6853f"] ;
58 -> 59 ;
60 [label="gini = 0.0\nsamples = 83\nvalue = [83, 0]\nclass = not_churn", fillcolor="#e58139"] ;
59 -> 60 ;
61 [label="CreditScore <= 670.0\ngini = 0.145\nsamples = 51\nvalue = [47, 4]\nclass = not_churn", fillcolor="#e78c4a"] ;
59 -> 61 ;
62 [label="gini = 0.0\nsamples = 1\nvalue = [0, 1]\nclass = churn", fillcolor="#399de5"] ;
61 -> 62 ;
63 [label="CreditScore <= 717.5\ngini = 0.113\nsamples = 50\nvalue = [47, 3]\nclass = not_churn", fillcolor="#e78946"] ;
61 -> 63 ;
64 [label="CreditScore <= 712.5\ngini = 0.245\nsamples = 21\nvalue = [18, 3]\nclass = not_churn", fillcolor="#e9965a"] ;
63 -> 64 ;
65 [label="Balance <= 86982.027\ngini = 0.1\nsamples = 19\nvalue = [18, 1]\nclass = not_churn", fillcolor="#e68844"] ;
64 -> 65 ;
66 [label="Age <= 24.5\ngini = 0.5\nsamples = 2\nvalue = [1, 1]\nclass = not_churn", fillcolor="#ffffff"] ;
65 -> 66 ;
67 [label="gini = 0.0\nsamples = 1\nvalue = [1, 0]\nclass = not_churn", fillcolor="#e58139"] ;
66 -> 67 ;
68 [label="gini = 0.0\nsamples = 1\nvalue = [0, 1]\nclass = churn", fillcolor="#399de5"] ;
66 -> 68 ;
69 [label="gini = 0.0\nsamples = 17\nvalue = [17, 0]\nclass = not_churn", fillcolor="#e58139"] ;
65 -> 69 ;
70 [label="gini = 0.0\nsamples = 2\nvalue = [0, 2]\nclass = churn", fillcolor="#399de5"] ;
64 -> 70 ;
71 [label="gini = 0.0\nsamples = 29\nvalue = [29, 0]\nclass = not_churn", fillcolor="#e58139"] ;
63 -> 71 ;
72 [label="Balance <= 171702.328\ngini = 0.206\nsamples = 231\nvalue = [204, 27]\nclass = not_churn", fillcolor="#e89253"] ;
58 -> 72 ;
73 [label="Age <= 22.5\ngini = 0.185\nsamples = 223\nvalue = [200, 23]\nclass = not_churn", fillcolor="#e88f50"] ;
72 -> 73 ;
74 [label="CreditScore <= 682.0\ngini = 0.426\nsamples = 13\nvalue = [9, 4]\nclass = not_churn", fillcolor="#f1b991"] ;
73 -> 74 ;
75 [label="gini = 0.0\nsamples = 8\nvalue = [8, 0]\nclass = not_churn", fillcolor="#e58139"] ;
74 -> 75 ;
76 [label="Age <= 20.5\ngini = 0.32\nsamples = 5\nvalue = [1, 4]\nclass = churn", fillcolor="#6ab6ec"] ;
74 -> 76 ;
77 [label="gini = 0.0\nsamples = 1\nvalue = [1, 0]\nclass = not_churn", fillcolor="#e58139"] ;
76 -> 77 ;
78 [label="gini = 0.0\nsamples = 4\nvalue = [0, 4]\nclass = churn", fillcolor="#399de5"] ;
76 -> 78 ;
79 [label="CreditScore <= 451.0\ngini = 0.165\nsamples = 210\nvalue = [191, 19]\nclass = not_churn", fillcolor="#e88e4d"] ;
73 -> 79 ;
80 [label="Age <= 32.0\ngini = 0.444\nsamples = 6\nvalue = [4, 2]\nclass = not_churn", fillcolor="#f2c09c"] ;
79 -> 80 ;
81 [label="gini = 0.0\nsamples = 3\nvalue = [3, 0]\nclass = not_churn", fillcolor="#e58139"] ;
80 -> 81 ;
82 [label="EstimatedSalary <= 66159.604\ngini = 0.444\nsamples = 3\nvalue = [1, 2]\nclass = churn", fillcolor="#9ccef2"] ;
80 -> 82 ;
83 [label="gini = 0.0\nsamples = 1\nvalue = [1, 0]\nclass = not_churn", fillcolor="#e58139"] ;
82 -> 83 ;
84 [label="gini = 0.0\nsamples = 2\nvalue = [0, 2]\nclass = churn", fillcolor="#399de5"] ;
82 -> 84 ;
85 [label="Age <= 36.5\ngini = 0.153\nsamples = 204\nvalue = [187, 17]\nclass = not_churn", fillcolor="#e78c4b"] ;
79 -> 85 ;
86 [label="EstimatedSalary <= 197051.102\ngini = 0.116\nsamples = 162\nvalue = [152, 10]\nclass = not_churn", fillcolor="#e78946"] ;
85 -> 86 ;
87 [label="Gender <= 0.5\ngini = 0.106\nsamples = 160\nvalue = [151, 9]\nclass = not_churn", fillcolor="#e78945"] ;
86 -> 87 ;
88 [label="Balance <= 85701.336\ngini = 0.188\nsamples = 57\nvalue = [51, 6]\nclass = not_churn", fillcolor="#e89050"] ;
87 -> 88 ;
89 [label="Balance <= 82297.055\ngini = 0.444\nsamples = 6\nvalue = [4, 2]\nclass = not_churn", fillcolor="#f2c09c"] ;
88 -> 89 ;
90 [label="gini = 0.0\nsamples = 3\nvalue = [3, 0]\nclass = not_churn", fillcolor="#e58139"] ;
89 -> 90 ;
91 [label="Age <= 28.5\ngini = 0.444\nsamples = 3\nvalue = [1, 2]\nclass = churn", fillcolor="#9ccef2"] ;
89 -> 91 ;
92 [label="gini = 0.0\nsamples = 1\nvalue = [1, 0]\nclass = not_churn", fillcolor="#e58139"] ;
91 -> 92 ;
93 [label="gini = 0.0\nsamples = 2\nvalue = [0, 2]\nclass = churn", fillcolor="#399de5"] ;
91 -> 93 ;
94 [label="Balance <= 124063.027\ngini = 0.145\nsamples = 51\nvalue = [47, 4]\nclass = not_churn", fillcolor="#e78c4a"] ;
88 -> 94 ;
95 [label="gini = 0.0\nsamples = 30\nvalue = [30, 0]\nclass = not_churn", fillcolor="#e58139"] ;
94 -> 95 ;
96 [label="Balance <= 126420.125\ngini = 0.308\nsamples = 21\nvalue = [17, 4]\nclass = not_churn", fillcolor="#eb9f68"] ;
94 -> 96 ;
97 [label="CreditScore <= 644.5\ngini = 0.444\nsamples = 3\nvalue = [1, 2]\nclass = churn", fillcolor="#9ccef2"] ;
96 -> 97 ;
98 [label="gini = 0.0\nsamples = 1\nvalue = [1, 0]\nclass = not_churn", fillcolor="#e58139"] ;
97 -> 98 ;
99 [label="gini = 0.0\nsamples = 2\nvalue = [0, 2]\nclass = churn", fillcolor="#399de5"] ;
97 -> 99 ;
100 [label="EstimatedSalary <= 7002.51\ngini = 0.198\nsamples = 18\nvalue = [16, 2]\nclass = not_churn", fillcolor="#e89152"] ;
96 -> 100 ;
101 [label="Balance <= 153919.828\ngini = 0.5\nsamples = 2\nvalue = [1, 1]\nclass = not_churn", fillcolor="#ffffff"] ;
100 -> 101 ;
102 [label="gini = 0.0\nsamples = 1\nvalue = [0, 1]\nclass = churn", fillcolor="#399de5"] ;
101 -> 102 ;
103 [label="gini = 0.0\nsamples = 1\nvalue = [1, 0]\nclass = not_churn", fillcolor="#e58139"] ;
101 -> 103 ;
104 [label="CreditScore <= 572.0\ngini = 0.117\nsamples = 16\nvalue = [15, 1]\nclass = not_churn", fillcolor="#e78946"] ;
100 -> 104 ;
105 [label="Age <= 28.5\ngini = 0.444\nsamples = 3\nvalue = [2, 1]\nclass = not_churn", fillcolor="#f2c09c"] ;
104 -> 105 ;
106 [label="gini = 0.0\nsamples = 1\nvalue = [0, 1]\nclass = churn", fillcolor="#399de5"] ;
105 -> 106 ;
107 [label="gini = 0.0\nsamples = 2\nvalue = [2, 0]\nclass = not_churn", fillcolor="#e58139"] ;
105 -> 107 ;
108 [label="gini = 0.0\nsamples = 13\nvalue = [13, 0]\nclass = not_churn", fillcolor="#e58139"] ;
104 -> 108 ;
109 [label="EstimatedSalary <= 189668.672\ngini = 0.057\nsamples = 103\nvalue = [100, 3]\nclass = not_churn", fillcolor="#e6853f"] ;
87 -> 109 ;
110 [label="Age <= 26.5\ngini = 0.04\nsamples = 98\nvalue = [96, 2]\nclass = not_churn", fillcolor="#e6843d"] ;
109 -> 110 ;
111 [label="CreditScore <= 670.5\ngini = 0.165\nsamples = 22\nvalue = [20, 2]\nclass = not_churn", fillcolor="#e88e4d"] ;
110 -> 111 ;
112 [label="gini = 0.0\nsamples = 12\nvalue = [12, 0]\nclass = not_churn", fillcolor="#e58139"] ;
111 -> 112 ;
113 [label="CreditScore <= 679.5\ngini = 0.32\nsamples = 10\nvalue = [8, 2]\nclass = not_churn", fillcolor="#eca06a"] ;
111 -> 113 ;
114 [label="gini = 0.0\nsamples = 1\nvalue = [0, 1]\nclass = churn", fillcolor="#399de5"] ;
113 -> 114 ;
115 [label="Balance <= 144464.344\ngini = 0.198\nsamples = 9\nvalue = [8, 1]\nclass = not_churn", fillcolor="#e89152"] ;
113 -> 115 ;
116 [label="gini = 0.0\nsamples = 7\nvalue = [7, 0]\nclass = not_churn", fillcolor="#e58139"] ;
115 -> 116 ;
117 [label="EstimatedSalary <= 84831.731\ngini = 0.5\nsamples = 2\nvalue = [1, 1]\nclass = not_churn", fillcolor="#ffffff"] ;
115 -> 117 ;
118 [label="gini = 0.0\nsamples = 1\nvalue = [0, 1]\nclass = churn", fillcolor="#399de5"] ;
117 -> 118 ;
119 [label="gini = 0.0\nsamples = 1\nvalue = [1, 0]\nclass = not_churn", fillcolor="#e58139"] ;
117 -> 119 ;
120 [label="gini = 0.0\nsamples = 76\nvalue = [76, 0]\nclass = not_churn", fillcolor="#e58139"] ;
110 -> 120 ;
121 [label="EstimatedSalary <= 190340.227\ngini = 0.32\nsamples = 5\nvalue = [4, 1]\nclass = not_churn", fillcolor="#eca06a"] ;
109 -> 121 ;
122 [label="gini = 0.0\nsamples = 1\nvalue = [0, 1]\nclass = churn", fillcolor="#399de5"] ;
121 -> 122 ;
123 [label="gini = 0.0\nsamples = 4\nvalue = [4, 0]\nclass = not_churn", fillcolor="#e58139"] ;
121 -> 123 ;
124 [label="Age <= 30.0\ngini = 0.5\nsamples = 2\nvalue = [1, 1]\nclass = not_churn", fillcolor="#ffffff"] ;
86 -> 124 ;
125 [label="gini = 0.0\nsamples = 1\nvalue = [1, 0]\nclass = not_churn", fillcolor="#e58139"] ;
124 -> 125 ;
126 [label="gini = 0.0\nsamples = 1\nvalue = [0, 1]\nclass = churn", fillcolor="#399de5"] ;
124 -> 126 ;
127 [label="Balance <= 138749.891\ngini = 0.278\nsamples = 42\nvalue = [35, 7]\nclass = not_churn", fillcolor="#ea9a61"] ;
85 -> 127 ;
128 [label="EstimatedSalary <= 30825.855\ngini = 0.202\nsamples = 35\nvalue = [31, 4]\nclass = not_churn", fillcolor="#e89153"] ;
127 -> 128 ;
129 [label="EstimatedSalary <= 12977.729\ngini = 0.444\nsamples = 6\nvalue = [4, 2]\nclass = not_churn", fillcolor="#f2c09c"] ;
128 -> 129 ;
130 [label="gini = 0.0\nsamples = 3\nvalue = [3, 0]\nclass = not_churn", fillcolor="#e58139"] ;
129 -> 130 ;
131 [label="HasCrCard <= 0.5\ngini = 0.444\nsamples = 3\nvalue = [1, 2]\nclass = churn", fillcolor="#9ccef2"] ;
129 -> 131 ;
132 [label="gini = 0.0\nsamples = 1\nvalue = [1, 0]\nclass = not_churn", fillcolor="#e58139"] ;
131 -> 132 ;
133 [label="gini = 0.0\nsamples = 2\nvalue = [0, 2]\nclass = churn", fillcolor="#399de5"] ;
131 -> 133 ;
134 [label="Age <= 37.5\ngini = 0.128\nsamples = 29\nvalue = [27, 2]\nclass = not_churn", fillcolor="#e78a48"] ;
128 -> 134 ;
135 [label="HasCrCard <= 0.5\ngini = 0.231\nsamples = 15\nvalue = [13, 2]\nclass = not_churn", fillcolor="#e99457"] ;
134 -> 135 ;
136 [label="CreditScore <= 626.0\ngini = 0.444\nsamples = 3\nvalue = [2, 1]\nclass = not_churn", fillcolor="#f2c09c"] ;
135 -> 136 ;
137 [label="gini = 0.0\nsamples = 1\nvalue = [0, 1]\nclass = churn", fillcolor="#399de5"] ;
136 -> 137 ;
138 [label="gini = 0.0\nsamples = 2\nvalue = [2, 0]\nclass = not_churn", fillcolor="#e58139"] ;
136 -> 138 ;
139 [label="CreditScore <= 679.5\ngini = 0.153\nsamples = 12\nvalue = [11, 1]\nclass = not_churn", fillcolor="#e78c4b"] ;
135 -> 139 ;
140 [label="gini = 0.0\nsamples = 9\nvalue = [9, 0]\nclass = not_churn", fillcolor="#e58139"] ;
139 -> 140 ;
141 [label="CreditScore <= 702.0\ngini = 0.444\nsamples = 3\nvalue = [2, 1]\nclass = not_churn", fillcolor="#f2c09c"] ;
139 -> 141 ;
142 [label="gini = 0.0\nsamples = 1\nvalue = [0, 1]\nclass = churn", fillcolor="#399de5"] ;
141 -> 142 ;
143 [label="gini = 0.0\nsamples = 2\nvalue = [2, 0]\nclass = not_churn", fillcolor="#e58139"] ;
141 -> 143 ;
144 [label="gini = 0.0\nsamples = 14\nvalue = [14, 0]\nclass = not_churn", fillcolor="#e58139"] ;
134 -> 144 ;
145 [label="Tenure <= 7.5\ngini = 0.49\nsamples = 7\nvalue = [4, 3]\nclass = not_churn", fillcolor="#f8e0ce"] ;
127 -> 145 ;
146 [label="CreditScore <= 684.5\ngini = 0.375\nsamples = 4\nvalue = [1, 3]\nclass = churn", fillcolor="#7bbeee"] ;
145 -> 146 ;
147 [label="CreditScore <= 653.5\ngini = 0.5\nsamples = 2\nvalue = [1, 1]\nclass = not_churn", fillcolor="#ffffff"] ;
146 -> 147 ;
148 [label="gini = 0.0\nsamples = 1\nvalue = [0, 1]\nclass = churn", fillcolor="#399de5"] ;
147 -> 148 ;
149 [label="gini = 0.0\nsamples = 1\nvalue = [1, 0]\nclass = not_churn", fillcolor="#e58139"] ;
147 -> 149 ;
150 [label="gini = 0.0\nsamples = 2\nvalue = [0, 2]\nclass = churn", fillcolor="#399de5"] ;
146 -> 150 ;
151 [label="gini = 0.0\nsamples = 3\nvalue = [3, 0]\nclass = not_churn", fillcolor="#e58139"] ;
145 -> 151 ;
152 [label="Gender <= 0.5\ngini = 0.5\nsamples = 8\nvalue = [4, 4]\nclass = not_churn", fillcolor="#ffffff"] ;
72 -> 152 ;
153 [label="gini = 0.0\nsamples = 3\nvalue = [0, 3]\nclass = churn", fillcolor="#399de5"] ;
152 -> 153 ;
154 [label="Age <= 34.5\ngini = 0.32\nsamples = 5\nvalue = [4, 1]\nclass = not_churn", fillcolor="#eca06a"] ;
152 -> 154 ;
155 [label="gini = 0.0\nsamples = 4\nvalue = [4, 0]\nclass = not_churn", fillcolor="#e58139"] ;
154 -> 155 ;
156 [label="gini = 0.0\nsamples = 1\nvalue = [0, 1]\nclass = churn", fillcolor="#399de5"] ;
154 -> 156 ;
157 [label="Gender <= 0.5\ngini = 0.469\nsamples = 8\nvalue = [3, 5]\nclass = churn", fillcolor="#b0d8f5"] ;
7 -> 157 ;
158 [label="gini = 0.0\nsamples = 4\nvalue = [0, 4]\nclass = churn", fillcolor="#399de5"] ;
157 -> 158 ;
159 [label="Balance <= 190115.422\ngini = 0.375\nsamples = 4\nvalue = [3, 1]\nclass = not_churn", fillcolor="#eeab7b"] ;
157 -> 159 ;
160 [label="gini = 0.0\nsamples = 1\nvalue = [0, 1]\nclass = churn", fillcolor="#399de5"] ;
159 -> 160 ;
161 [label="gini = 0.0\nsamples = 3\nvalue = [3, 0]\nclass = not_churn", fillcolor="#e58139"] ;
159 -> 161 ;
162 [label="Balance <= 136623.047\ngini = 0.338\nsamples = 436\nvalue = [342, 94]\nclass = not_churn", fillcolor="#eca46f"] ;
6 -> 162 ;
163 [label="Geography <= 1.5\ngini = 0.38\nsamples = 330\nvalue = [246, 84]\nclass = not_churn", fillcolor="#eeac7d"] ;
162 -> 163 ;
164 [label="Balance <= 92650.051\ngini = 0.439\nsamples = 166\nvalue = [112, 54]\nclass = not_churn", fillcolor="#f2be98"] ;
163 -> 164 ;
165 [label="EstimatedSalary <= 12881.54\ngini = 0.121\nsamples = 31\nvalue = [29, 2]\nclass = not_churn", fillcolor="#e78a47"] ;
164 -> 165 ;
166 [label="Tenure <= 1.0\ngini = 0.5\nsamples = 2\nvalue = [1, 1]\nclass = not_churn", fillcolor="#ffffff"] ;
165 -> 166 ;
167 [label="gini = 0.0\nsamples = 1\nvalue = [1, 0]\nclass = not_churn", fillcolor="#e58139"] ;
166 -> 167 ;
168 [label="gini = 0.0\nsamples = 1\nvalue = [0, 1]\nclass = churn", fillcolor="#399de5"] ;
166 -> 168 ;
169 [label="Age <= 37.0\ngini = 0.067\nsamples = 29\nvalue = [28, 1]\nclass = not_churn", fillcolor="#e68640"] ;
165 -> 169 ;
170 [label="gini = 0.0\nsamples = 25\nvalue = [25, 0]\nclass = not_churn", fillcolor="#e58139"] ;
169 -> 170 ;
171 [label="Balance <= 74759.578\ngini = 0.375\nsamples = 4\nvalue = [3, 1]\nclass = not_churn", fillcolor="#eeab7b"] ;
169 -> 171 ;
172 [label="gini = 0.0\nsamples = 1\nvalue = [0, 1]\nclass = churn", fillcolor="#399de5"] ;
171 -> 172 ;
173 [label="gini = 0.0\nsamples = 3\nvalue = [3, 0]\nclass = not_churn", fillcolor="#e58139"] ;
171 -> 173 ;
174 [label="CreditScore <= 470.0\ngini = 0.474\nsamples = 135\nvalue = [83, 52]\nclass = not_churn", fillcolor="#f5d0b5"] ;
164 -> 174 ;
175 [label="gini = 0.0\nsamples = 3\nvalue = [0, 3]\nclass = churn", fillcolor="#399de5"] ;
174 -> 175 ;
176 [label="Balance <= 123084.145\ngini = 0.467\nsamples = 132\nvalue = [83, 49]\nclass = not_churn", fillcolor="#f4cbae"] ;
174 -> 176 ;
177 [label="EstimatedSalary <= 177045.148\ngini = 0.494\nsamples = 83\nvalue = [46, 37]\nclass = not_churn", fillcolor="#fae6d8"] ;
176 -> 177 ;
178 [label="Balance <= 122137.102\ngini = 0.478\nsamples = 71\nvalue = [43, 28]\nclass = not_churn", fillcolor="#f6d3ba"] ;
177 -> 178 ;
179 [label="Age <= 27.5\ngini = 0.46\nsamples = 67\nvalue = [43, 24]\nclass = not_churn", fillcolor="#f4c7a8"] ;
178 -> 179 ;
180 [label="Balance <= 101962.199\ngini = 0.153\nsamples = 12\nvalue = [11, 1]\nclass = not_churn", fillcolor="#e78c4b"] ;
179 -> 180 ;
181 [label="Balance <= 101361.918\ngini = 0.444\nsamples = 3\nvalue = [2, 1]\nclass = not_churn", fillcolor="#f2c09c"] ;
180 -> 181 ;
182 [label="gini = 0.0\nsamples = 2\nvalue = [2, 0]\nclass = not_churn", fillcolor="#e58139"] ;
181 -> 182 ;
183 [label="gini = 0.0\nsamples = 1\nvalue = [0, 1]\nclass = churn", fillcolor="#399de5"] ;
181 -> 183 ;
184 [label="gini = 0.0\nsamples = 9\nvalue = [9, 0]\nclass = not_churn", fillcolor="#e58139"] ;
180 -> 184 ;
185 [label="Balance <= 104427.777\ngini = 0.487\nsamples = 55\nvalue = [32, 23]\nclass = not_churn", fillcolor="#f8dcc7"] ;
179 -> 185 ;
186 [label="Age <= 29.5\ngini = 0.423\nsamples = 23\nvalue = [16, 7]\nclass = not_churn", fillcolor="#f0b890"] ;
185 -> 186 ;
187 [label="gini = 0.0\nsamples = 2\nvalue = [0, 2]\nclass = churn", fillcolor="#399de5"] ;
186 -> 187 ;
188 [label="CreditScore <= 772.5\ngini = 0.363\nsamples = 21\nvalue = [16, 5]\nclass = not_churn", fillcolor="#eda877"] ;
186 -> 188 ;
189 [label="Balance <= 93480.281\ngini = 0.278\nsamples = 18\nvalue = [15, 3]\nclass = not_churn", fillcolor="#ea9a61"] ;
188 -> 189 ;
190 [label="gini = 0.0\nsamples = 1\nvalue = [0, 1]\nclass = churn", fillcolor="#399de5"] ;
189 -> 190 ;
191 [label="Age <= 34.5\ngini = 0.208\nsamples = 17\nvalue = [15, 2]\nclass = not_churn", fillcolor="#e89253"] ;
189 -> 191 ;
192 [label="EstimatedSalary <= 129789.469\ngini = 0.346\nsamples = 9\nvalue = [7, 2]\nclass = not_churn", fillcolor="#eca572"] ;
191 -> 192 ;
193 [label="CreditScore <= 736.0\ngini = 0.219\nsamples = 8\nvalue = [7, 1]\nclass = not_churn", fillcolor="#e99355"] ;
192 -> 193 ;
194 [label="gini = 0.0\nsamples = 6\nvalue = [6, 0]\nclass = not_churn", fillcolor="#e58139"] ;
193 -> 194 ;
195 [label="Balance <= 101965.473\ngini = 0.5\nsamples = 2\nvalue = [1, 1]\nclass = not_churn", fillcolor="#ffffff"] ;
193 -> 195 ;
196 [label="gini = 0.0\nsamples = 1\nvalue = [1, 0]\nclass = not_churn", fillcolor="#e58139"] ;
195 -> 196 ;
197 [label="gini = 0.0\nsamples = 1\nvalue = [0, 1]\nclass = churn", fillcolor="#399de5"] ;
195 -> 197 ;
198 [label="gini = 0.0\nsamples = 1\nvalue = [0, 1]\nclass = churn", fillcolor="#399de5"] ;
192 -> 198 ;
199 [label="gini = 0.0\nsamples = 8\nvalue = [8, 0]\nclass = not_churn", fillcolor="#e58139"] ;
191 -> 199 ;
200 [label="HasCrCard <= 0.5\ngini = 0.444\nsamples = 3\nvalue = [1, 2]\nclass = churn", fillcolor="#9ccef2"] ;
188 -> 200 ;
201 [label="gini = 0.0\nsamples = 1\nvalue = [1, 0]\nclass = not_churn", fillcolor="#e58139"] ;
200 -> 201 ;
202 [label="gini = 0.0\nsamples = 2\nvalue = [0, 2]\nclass = churn", fillcolor="#399de5"] ;
200 -> 202 ;
203 [label="Age <= 33.5\ngini = 0.5\nsamples = 32\nvalue = [16, 16]\nclass = not_churn", fillcolor="#ffffff"] ;
185 -> 203 ;
204 [label="Tenure <= 4.5\ngini = 0.415\nsamples = 17\nvalue = [12, 5]\nclass = not_churn", fillcolor="#f0b58b"] ;
203 -> 204 ;
205 [label="Age <= 31.5\ngini = 0.49\nsamples = 7\nvalue = [3, 4]\nclass = churn", fillcolor="#cee6f8"] ;
204 -> 205 ;
206 [label="Balance <= 106779.613\ngini = 0.32\nsamples = 5\nvalue = [1, 4]\nclass = churn", fillcolor="#6ab6ec"] ;
205 -> 206 ;
207 [label="gini = 0.0\nsamples = 1\nvalue = [1, 0]\nclass = not_churn", fillcolor="#e58139"] ;
206 -> 207 ;
208 [label="gini = 0.0\nsamples = 4\nvalue = [0, 4]\nclass = churn", fillcolor="#399de5"] ;
206 -> 208 ;
209 [label="gini = 0.0\nsamples = 2\nvalue = [2, 0]\nclass = not_churn", fillcolor="#e58139"] ;
205 -> 209 ;
210 [label="Balance <= 107713.785\ngini = 0.18\nsamples = 10\nvalue = [9, 1]\nclass = not_churn", fillcolor="#e88f4f"] ;
204 -> 210 ;
211 [label="gini = 0.0\nsamples = 1\nvalue = [0, 1]\nclass = churn", fillcolor="#399de5"] ;
210 -> 211 ;
212 [label="gini = 0.0\nsamples = 9\nvalue = [9, 0]\nclass = not_churn", fillcolor="#e58139"] ;
210 -> 212 ;
213 [label="CreditScore <= 501.5\ngini = 0.391\nsamples = 15\nvalue = [4, 11]\nclass = churn", fillcolor="#81c1ee"] ;
203 -> 213 ;
214 [label="gini = 0.0\nsamples = 1\nvalue = [1, 0]\nclass = not_churn", fillcolor="#e58139"] ;
213 -> 214 ;
215 [label="CreditScore <= 777.0\ngini = 0.337\nsamples = 14\nvalue = [3, 11]\nclass = churn", fillcolor="#6fb8ec"] ;
213 -> 215 ;
216 [label="CreditScore <= 654.5\ngini = 0.26\nsamples = 13\nvalue = [2, 11]\nclass = churn", fillcolor="#5dafea"] ;
215 -> 216 ;
217 [label="Tenure <= 7.0\ngini = 0.444\nsamples = 6\nvalue = [2, 4]\nclass = churn", fillcolor="#9ccef2"] ;
216 -> 217 ;
218 [label="gini = 0.0\nsamples = 2\nvalue = [2, 0]\nclass = not_churn", fillcolor="#e58139"] ;
217 -> 218 ;
219 [label="gini = 0.0\nsamples = 4\nvalue = [0, 4]\nclass = churn", fillcolor="#399de5"] ;
217 -> 219 ;
220 [label="gini = 0.0\nsamples = 7\nvalue = [0, 7]\nclass = churn", fillcolor="#399de5"] ;
216 -> 220 ;
221 [label="gini = 0.0\nsamples = 1\nvalue = [1, 0]\nclass = not_churn", fillcolor="#e58139"] ;
215 -> 221 ;
222 [label="gini = 0.0\nsamples = 4\nvalue = [0, 4]\nclass = churn", fillcolor="#399de5"] ;
178 -> 222 ;
223 [label="Age <= 35.5\ngini = 0.375\nsamples = 12\nvalue = [3, 9]\nclass = churn", fillcolor="#7bbeee"] ;
177 -> 223 ;
224 [label="Balance <= 114606.859\ngini = 0.198\nsamples = 9\nvalue = [1, 8]\nclass = churn", fillcolor="#52a9e8"] ;
223 -> 224 ;
225 [label="gini = 0.0\nsamples = 7\nvalue = [0, 7]\nclass = churn", fillcolor="#399de5"] ;
224 -> 225 ;
226 [label="Tenure <= 3.5\ngini = 0.5\nsamples = 2\nvalue = [1, 1]\nclass = not_churn", fillcolor="#ffffff"] ;
224 -> 226 ;
227 [label="gini = 0.0\nsamples = 1\nvalue = [1, 0]\nclass = not_churn", fillcolor="#e58139"] ;
226 -> 227 ;
228 [label="gini = 0.0\nsamples = 1\nvalue = [0, 1]\nclass = churn", fillcolor="#399de5"] ;
226 -> 228 ;
229 [label="CreditScore <= 762.0\ngini = 0.444\nsamples = 3\nvalue = [2, 1]\nclass = not_churn", fillcolor="#f2c09c"] ;
223 -> 229 ;
230 [label="gini = 0.0\nsamples = 2\nvalue = [2, 0]\nclass = not_churn", fillcolor="#e58139"] ;
229 -> 230 ;
231 [label="gini = 0.0\nsamples = 1\nvalue = [0, 1]\nclass = churn", fillcolor="#399de5"] ;
229 -> 231 ;
232 [label="EstimatedSalary <= 69832.035\ngini = 0.37\nsamples = 49\nvalue = [37, 12]\nclass = not_churn", fillcolor="#edaa79"] ;
176 -> 232 ;
233 [label="Age <= 31.0\ngini = 0.497\nsamples = 13\nvalue = [7, 6]\nclass = not_churn", fillcolor="#fbede3"] ;
232 -> 233 ;
234 [label="Age <= 25.0\ngini = 0.32\nsamples = 5\nvalue = [4, 1]\nclass = not_churn", fillcolor="#eca06a"] ;
233 -> 234 ;
235 [label="gini = 0.0\nsamples = 1\nvalue = [0, 1]\nclass = churn", fillcolor="#399de5"] ;
234 -> 235 ;
236 [label="gini = 0.0\nsamples = 4\nvalue = [4, 0]\nclass = not_churn", fillcolor="#e58139"] ;
234 -> 236 ;
237 [label="CreditScore <= 664.0\ngini = 0.469\nsamples = 8\nvalue = [3, 5]\nclass = churn", fillcolor="#b0d8f5"] ;
233 -> 237 ;
238 [label="gini = 0.0\nsamples = 4\nvalue = [0, 4]\nclass = churn", fillcolor="#399de5"] ;
237 -> 238 ;
239 [label="Gender <= 0.5\ngini = 0.375\nsamples = 4\nvalue = [3, 1]\nclass = not_churn", fillcolor="#eeab7b"] ;
237 -> 239 ;
240 [label="gini = 0.0\nsamples = 1\nvalue = [0, 1]\nclass = churn", fillcolor="#399de5"] ;
239 -> 240 ;
241 [label="gini = 0.0\nsamples = 3\nvalue = [3, 0]\nclass = not_churn", fillcolor="#e58139"] ;
239 -> 241 ;
242 [label="Age <= 37.5\ngini = 0.278\nsamples = 36\nvalue = [30, 6]\nclass = not_churn", fillcolor="#ea9a61"] ;
232 -> 242 ;
243 [label="CreditScore <= 765.0\ngini = 0.18\nsamples = 30\nvalue = [27, 3]\nclass = not_churn", fillcolor="#e88f4f"] ;
242 -> 243 ;
244 [label="gini = 0.0\nsamples = 22\nvalue = [22, 0]\nclass = not_churn", fillcolor="#e58139"] ;
243 -> 244 ;
245 [label="CreditScore <= 770.5\ngini = 0.469\nsamples = 8\nvalue = [5, 3]\nclass = not_churn", fillcolor="#f5cdb0"] ;
243 -> 245 ;
246 [label="gini = 0.0\nsamples = 2\nvalue = [0, 2]\nclass = churn", fillcolor="#399de5"] ;
245 -> 246 ;
247 [label="Age <= 23.0\ngini = 0.278\nsamples = 6\nvalue = [5, 1]\nclass = not_churn", fillcolor="#ea9a61"] ;
245 -> 247 ;
248 [label="gini = 0.0\nsamples = 1\nvalue = [0, 1]\nclass = churn", fillcolor="#399de5"] ;
247 -> 248 ;
249 [label="gini = 0.0\nsamples = 5\nvalue = [5, 0]\nclass = not_churn", fillcolor="#e58139"] ;
247 -> 249 ;
250 [label="Tenure <= 1.5\ngini = 0.5\nsamples = 6\nvalue = [3, 3]\nclass = not_churn", fillcolor="#ffffff"] ;
242 -> 250 ;
251 [label="gini = 0.0\nsamples = 3\nvalue = [0, 3]\nclass = churn", fillcolor="#399de5"] ;
250 -> 251 ;
252 [label="gini = 0.0\nsamples = 3\nvalue = [3, 0]\nclass = not_churn", fillcolor="#e58139"] ;
250 -> 252 ;
253 [label="Balance <= 58041.555\ngini = 0.299\nsamples = 164\nvalue = [134, 30]\nclass = not_churn", fillcolor="#eb9d65"] ;
163 -> 253 ;
254 [label="EstimatedSalary <= 114740.797\ngini = 0.441\nsamples = 64\nvalue = [43, 21]\nclass = not_churn", fillcolor="#f2bf9a"] ;
253 -> 254 ;
255 [label="Age <= 32.5\ngini = 0.485\nsamples = 41\nvalue = [24, 17]\nclass = not_churn", fillcolor="#f7dac5"] ;
254 -> 255 ;
256 [label="Balance <= 13877.985\ngini = 0.351\nsamples = 22\nvalue = [17, 5]\nclass = not_churn", fillcolor="#eda673"] ;
255 -> 256 ;
257 [label="Age <= 24.5\ngini = 0.255\nsamples = 20\nvalue = [17, 3]\nclass = not_churn", fillcolor="#ea975c"] ;
256 -> 257 ;
258 [label="EstimatedSalary <= 60513.266\ngini = 0.48\nsamples = 5\nvalue = [3, 2]\nclass = not_churn", fillcolor="#f6d5bd"] ;
257 -> 258 ;
259 [label="gini = 0.0\nsamples = 2\nvalue = [0, 2]\nclass = churn", fillcolor="#399de5"] ;
258 -> 259 ;
260 [label="gini = 0.0\nsamples = 3\nvalue = [3, 0]\nclass = not_churn", fillcolor="#e58139"] ;
258 -> 260 ;
261 [label="HasCrCard <= 0.5\ngini = 0.124\nsamples = 15\nvalue = [14, 1]\nclass = not_churn", fillcolor="#e78a47"] ;
257 -> 261 ;
262 [label="CreditScore <= 684.5\ngini = 0.5\nsamples = 2\nvalue = [1, 1]\nclass = not_churn", fillcolor="#ffffff"] ;
261 -> 262 ;
263 [label="gini = 0.0\nsamples = 1\nvalue = [0, 1]\nclass = churn", fillcolor="#399de5"] ;
262 -> 263 ;
264 [label="gini = 0.0\nsamples = 1\nvalue = [1, 0]\nclass = not_churn", fillcolor="#e58139"] ;
262 -> 264 ;
265 [label="gini = 0.0\nsamples = 13\nvalue = [13, 0]\nclass = not_churn", fillcolor="#e58139"] ;
261 -> 265 ;
266 [label="gini = 0.0\nsamples = 2\nvalue = [0, 2]\nclass = churn", fillcolor="#399de5"] ;
256 -> 266 ;
267 [label="CreditScore <= 630.0\ngini = 0.465\nsamples = 19\nvalue = [7, 12]\nclass = churn", fillcolor="#acd6f4"] ;
255 -> 267 ;
268 [label="gini = 0.0\nsamples = 7\nvalue = [0, 7]\nclass = churn", fillcolor="#399de5"] ;
267 -> 268 ;
269 [label="Age <= 35.5\ngini = 0.486\nsamples = 12\nvalue = [7, 5]\nclass = not_churn", fillcolor="#f8dbc6"] ;
267 -> 269 ;
270 [label="CreditScore <= 679.5\ngini = 0.469\nsamples = 8\nvalue = [3, 5]\nclass = churn", fillcolor="#b0d8f5"] ;
269 -> 270 ;
271 [label="CreditScore <= 648.0\ngini = 0.375\nsamples = 4\nvalue = [3, 1]\nclass = not_churn", fillcolor="#eeab7b"] ;
270 -> 271 ;
272 [label="gini = 0.0\nsamples = 1\nvalue = [0, 1]\nclass = churn", fillcolor="#399de5"] ;
271 -> 272 ;
273 [label="gini = 0.0\nsamples = 3\nvalue = [3, 0]\nclass = not_churn", fillcolor="#e58139"] ;
271 -> 273 ;
274 [label="gini = 0.0\nsamples = 4\nvalue = [0, 4]\nclass = churn", fillcolor="#399de5"] ;
270 -> 274 ;
275 [label="gini = 0.0\nsamples = 4\nvalue = [4, 0]\nclass = not_churn", fillcolor="#e58139"] ;
269 -> 275 ;
276 [label="CreditScore <= 689.0\ngini = 0.287\nsamples = 23\nvalue = [19, 4]\nclass = not_churn", fillcolor="#ea9c63"] ;
254 -> 276 ;
277 [label="gini = 0.0\nsamples = 13\nvalue = [13, 0]\nclass = not_churn", fillcolor="#e58139"] ;
276 -> 277 ;
278 [label="CreditScore <= 729.0\ngini = 0.48\nsamples = 10\nvalue = [6, 4]\nclass = not_churn", fillcolor="#f6d5bd"] ;
276 -> 278 ;
279 [label="Age <= 36.5\ngini = 0.375\nsamples = 4\nvalue = [1, 3]\nclass = churn", fillcolor="#7bbeee"] ;
278 -> 279 ;
280 [label="gini = 0.0\nsamples = 3\nvalue = [0, 3]\nclass = churn", fillcolor="#399de5"] ;
279 -> 280 ;
281 [label="gini = 0.0\nsamples = 1\nvalue = [1, 0]\nclass = not_churn", fillcolor="#e58139"] ;
279 -> 281 ;
282 [label="HasCrCard <= 0.5\ngini = 0.278\nsamples = 6\nvalue = [5, 1]\nclass = not_churn", fillcolor="#ea9a61"] ;
278 -> 282 ;
283 [label="EstimatedSalary <= 161591.258\ngini = 0.5\nsamples = 2\nvalue = [1, 1]\nclass = not_churn", fillcolor="#ffffff"] ;
282 -> 283 ;
284 [label="gini = 0.0\nsamples = 1\nvalue = [1, 0]\nclass = not_churn", fillcolor="#e58139"] ;
283 -> 284 ;
285 [label="gini = 0.0\nsamples = 1\nvalue = [0, 1]\nclass = churn", fillcolor="#399de5"] ;
283 -> 285 ;
286 [label="gini = 0.0\nsamples = 4\nvalue = [4, 0]\nclass = not_churn", fillcolor="#e58139"] ;
282 -> 286 ;
287 [label="Balance <= 136319.219\ngini = 0.164\nsamples = 100\nvalue = [91, 9]\nclass = not_churn", fillcolor="#e88d4d"] ;
253 -> 287 ;
288 [label="EstimatedSalary <= 150321.984\ngini = 0.149\nsamples = 99\nvalue = [91, 8]\nclass = not_churn", fillcolor="#e78c4a"] ;
287 -> 288 ;
289 [label="Age <= 24.5\ngini = 0.075\nsamples = 77\nvalue = [74, 3]\nclass = not_churn", fillcolor="#e68641"] ;
288 -> 289 ;
290 [label="CreditScore <= 598.0\ngini = 0.375\nsamples = 4\nvalue = [3, 1]\nclass = not_churn", fillcolor="#eeab7b"] ;
289 -> 290 ;
291 [label="gini = 0.0\nsamples = 1\nvalue = [0, 1]\nclass = churn", fillcolor="#399de5"] ;
290 -> 291 ;
292 [label="gini = 0.0\nsamples = 3\nvalue = [3, 0]\nclass = not_churn", fillcolor="#e58139"] ;
290 -> 292 ;
293 [label="CreditScore <= 688.0\ngini = 0.053\nsamples = 73\nvalue = [71, 2]\nclass = not_churn", fillcolor="#e6853f"] ;
289 -> 293 ;
294 [label="gini = 0.0\nsamples = 48\nvalue = [48, 0]\nclass = not_churn", fillcolor="#e58139"] ;
293 -> 294 ;
295 [label="CreditScore <= 692.5\ngini = 0.147\nsamples = 25\nvalue = [23, 2]\nclass = not_churn", fillcolor="#e78c4a"] ;
293 -> 295 ;
296 [label="gini = 0.0\nsamples = 1\nvalue = [0, 1]\nclass = churn", fillcolor="#399de5"] ;
295 -> 296 ;
297 [label="EstimatedSalary <= 128764.852\ngini = 0.08\nsamples = 24\nvalue = [23, 1]\nclass = not_churn", fillcolor="#e68642"] ;
295 -> 297 ;
298 [label="gini = 0.0\nsamples = 19\nvalue = [19, 0]\nclass = not_churn", fillcolor="#e58139"] ;
297 -> 298 ;
299 [label="EstimatedSalary <= 134785.109\ngini = 0.32\nsamples = 5\nvalue = [4, 1]\nclass = not_churn", fillcolor="#eca06a"] ;
297 -> 299 ;
300 [label="gini = 0.0\nsamples = 1\nvalue = [0, 1]\nclass = churn", fillcolor="#399de5"] ;
299 -> 300 ;
301 [label="gini = 0.0\nsamples = 4\nvalue = [4, 0]\nclass = not_churn", fillcolor="#e58139"] ;
299 -> 301 ;
302 [label="Age <= 33.5\ngini = 0.351\nsamples = 22\nvalue = [17, 5]\nclass = not_churn", fillcolor="#eda673"] ;
288 -> 302 ;
303 [label="gini = 0.0\nsamples = 9\nvalue = [9, 0]\nclass = not_churn", fillcolor="#e58139"] ;
302 -> 303 ;
304 [label="CreditScore <= 586.5\ngini = 0.473\nsamples = 13\nvalue = [8, 5]\nclass = not_churn", fillcolor="#f5d0b5"] ;
302 -> 304 ;
305 [label="gini = 0.0\nsamples = 2\nvalue = [0, 2]\nclass = churn", fillcolor="#399de5"] ;
304 -> 305 ;
306 [label="EstimatedSalary <= 171770.195\ngini = 0.397\nsamples = 11\nvalue = [8, 3]\nclass = not_churn", fillcolor="#efb083"] ;
304 -> 306 ;
307 [label="Balance <= 108039.699\ngini = 0.444\nsamples = 3\nvalue = [1, 2]\nclass = churn", fillcolor="#9ccef2"] ;
306 -> 307 ;
308 [label="gini = 0.0\nsamples = 1\nvalue = [1, 0]\nclass = not_churn", fillcolor="#e58139"] ;
307 -> 308 ;
309 [label="gini = 0.0\nsamples = 2\nvalue = [0, 2]\nclass = churn", fillcolor="#399de5"] ;
307 -> 309 ;
310 [label="Tenure <= 1.0\ngini = 0.219\nsamples = 8\nvalue = [7, 1]\nclass = not_churn", fillcolor="#e99355"] ;
306 -> 310 ;
311 [label="gini = 0.0\nsamples = 1\nvalue = [0, 1]\nclass = churn", fillcolor="#399de5"] ;
310 -> 311 ;
312 [label="gini = 0.0\nsamples = 7\nvalue = [7, 0]\nclass = not_churn", fillcolor="#e58139"] ;
310 -> 312 ;
313 [label="gini = 0.0\nsamples = 1\nvalue = [0, 1]\nclass = churn", fillcolor="#399de5"] ;
287 -> 313 ;
314 [label="EstimatedSalary <= 115488.016\ngini = 0.171\nsamples = 106\nvalue = [96, 10]\nclass = not_churn", fillcolor="#e88e4e"] ;
162 -> 314 ;
315 [label="Tenure <= 0.5\ngini = 0.282\nsamples = 59\nvalue = [49, 10]\nclass = not_churn", fillcolor="#ea9b61"] ;
314 -> 315 ;
316 [label="gini = 0.0\nsamples = 2\nvalue = [0, 2]\nclass = churn", fillcolor="#399de5"] ;
315 -> 316 ;
317 [label="EstimatedSalary <= 114488.691\ngini = 0.241\nsamples = 57\nvalue = [49, 8]\nclass = not_churn", fillcolor="#e99659"] ;
315 -> 317 ;
318 [label="Balance <= 150481.742\ngini = 0.219\nsamples = 56\nvalue = [49, 7]\nclass = not_churn", fillcolor="#e99355"] ;
317 -> 318 ;
319 [label="Geography <= 1.5\ngini = 0.351\nsamples = 22\nvalue = [17, 5]\nclass = not_churn", fillcolor="#eda673"] ;
318 -> 319 ;
320 [label="EstimatedSalary <= 54972.199\ngini = 0.486\nsamples = 12\nvalue = [7, 5]\nclass = not_churn", fillcolor="#f8dbc6"] ;
319 -> 320 ;
321 [label="CreditScore <= 797.5\ngini = 0.245\nsamples = 7\nvalue = [6, 1]\nclass = not_churn", fillcolor="#e9965a"] ;
320 -> 321 ;
322 [label="gini = 0.0\nsamples = 6\nvalue = [6, 0]\nclass = not_churn", fillcolor="#e58139"] ;
321 -> 322 ;
323 [label="gini = 0.0\nsamples = 1\nvalue = [0, 1]\nclass = churn", fillcolor="#399de5"] ;
321 -> 323 ;
324 [label="EstimatedSalary <= 82134.227\ngini = 0.32\nsamples = 5\nvalue = [1, 4]\nclass = churn", fillcolor="#6ab6ec"] ;
320 -> 324 ;
325 [label="gini = 0.0\nsamples = 4\nvalue = [0, 4]\nclass = churn", fillcolor="#399de5"] ;
324 -> 325 ;
326 [label="gini = 0.0\nsamples = 1\nvalue = [1, 0]\nclass = not_churn", fillcolor="#e58139"] ;
324 -> 326 ;
327 [label="gini = 0.0\nsamples = 10\nvalue = [10, 0]\nclass = not_churn", fillcolor="#e58139"] ;
319 -> 327 ;
328 [label="EstimatedSalary <= 3547.355\ngini = 0.111\nsamples = 34\nvalue = [32, 2]\nclass = not_churn", fillcolor="#e78945"] ;
318 -> 328 ;
329 [label="Tenure <= 5.0\ngini = 0.5\nsamples = 2\nvalue = [1, 1]\nclass = not_churn", fillcolor="#ffffff"] ;
328 -> 329 ;
330 [label="gini = 0.0\nsamples = 1\nvalue = [0, 1]\nclass = churn", fillcolor="#399de5"] ;
329 -> 330 ;
331 [label="gini = 0.0\nsamples = 1\nvalue = [1, 0]\nclass = not_churn", fillcolor="#e58139"] ;
329 -> 331 ;
332 [label="EstimatedSalary <= 104956.789\ngini = 0.061\nsamples = 32\nvalue = [31, 1]\nclass = not_churn", fillcolor="#e6853f"] ;
328 -> 332 ;
333 [label="gini = 0.0\nsamples = 30\nvalue = [30, 0]\nclass = not_churn", fillcolor="#e58139"] ;
332 -> 333 ;
334 [label="Balance <= 163812.789\ngini = 0.5\nsamples = 2\nvalue = [1, 1]\nclass = not_churn", fillcolor="#ffffff"] ;
332 -> 334 ;
335 [label="gini = 0.0\nsamples = 1\nvalue = [1, 0]\nclass = not_churn", fillcolor="#e58139"] ;
334 -> 335 ;
336 [label="gini = 0.0\nsamples = 1\nvalue = [0, 1]\nclass = churn", fillcolor="#399de5"] ;
334 -> 336 ;
337 [label="gini = 0.0\nsamples = 1\nvalue = [0, 1]\nclass = churn", fillcolor="#399de5"] ;
317 -> 337 ;
338 [label="gini = 0.0\nsamples = 47\nvalue = [47, 0]\nclass = not_churn", fillcolor="#e58139"] ;
314 -> 338 ;
339 [label="Balance <= 34285.855\ngini = 0.429\nsamples = 221\nvalue = [152, 69]\nclass = not_churn", fillcolor="#f1ba93"] ;
5 -> 339 ;
340 [label="EstimatedSalary <= 26228.62\ngini = 0.497\nsamples = 37\nvalue = [20, 17]\nclass = not_churn", fillcolor="#fbece1"] ;
339 -> 340 ;
341 [label="gini = 0.0\nsamples = 6\nvalue = [6, 0]\nclass = not_churn", fillcolor="#e58139"] ;
340 -> 341 ;
342 [label="Tenure <= 2.5\ngini = 0.495\nsamples = 31\nvalue = [14, 17]\nclass = churn", fillcolor="#dceefa"] ;
340 -> 342 ;
343 [label="gini = 0.0\nsamples = 5\nvalue = [5, 0]\nclass = not_churn", fillcolor="#e58139"] ;
342 -> 343 ;
344 [label="EstimatedSalary <= 146650.43\ngini = 0.453\nsamples = 26\nvalue = [9, 17]\nclass = churn", fillcolor="#a2d1f3"] ;
342 -> 344 ;
345 [label="EstimatedSalary <= 130466.852\ngini = 0.495\nsamples = 20\nvalue = [9, 11]\nclass = churn", fillcolor="#dbedfa"] ;
344 -> 345 ;
346 [label="EstimatedSalary <= 61494.25\ngini = 0.43\nsamples = 16\nvalue = [5, 11]\nclass = churn", fillcolor="#93caf1"] ;
345 -> 346 ;
347 [label="gini = 0.0\nsamples = 5\nvalue = [0, 5]\nclass = churn", fillcolor="#399de5"] ;
346 -> 347 ;
348 [label="Tenure <= 6.5\ngini = 0.496\nsamples = 11\nvalue = [5, 6]\nclass = churn", fillcolor="#deeffb"] ;
346 -> 348 ;
349 [label="EstimatedSalary <= 81580.684\ngini = 0.444\nsamples = 6\nvalue = [4, 2]\nclass = not_churn", fillcolor="#f2c09c"] ;
348 -> 349 ;
350 [label="Balance <= 14041.475\ngini = 0.32\nsamples = 5\nvalue = [4, 1]\nclass = not_churn", fillcolor="#eca06a"] ;
349 -> 350 ;
351 [label="gini = 0.0\nsamples = 4\nvalue = [4, 0]\nclass = not_churn", fillcolor="#e58139"] ;
350 -> 351 ;
352 [label="gini = 0.0\nsamples = 1\nvalue = [0, 1]\nclass = churn", fillcolor="#399de5"] ;
350 -> 352 ;
353 [label="gini = 0.0\nsamples = 1\nvalue = [0, 1]\nclass = churn", fillcolor="#399de5"] ;
349 -> 353 ;
354 [label="EstimatedSalary <= 104127.961\ngini = 0.32\nsamples = 5\nvalue = [1, 4]\nclass = churn", fillcolor="#6ab6ec"] ;
348 -> 354 ;
355 [label="gini = 0.0\nsamples = 3\nvalue = [0, 3]\nclass = churn", fillcolor="#399de5"] ;
354 -> 355 ;
356 [label="EstimatedSalary <= 127421.961\ngini = 0.5\nsamples = 2\nvalue = [1, 1]\nclass = not_churn", fillcolor="#ffffff"] ;
354 -> 356 ;
357 [label="gini = 0.0\nsamples = 1\nvalue = [1, 0]\nclass = not_churn", fillcolor="#e58139"] ;
356 -> 357 ;
358 [label="gini = 0.0\nsamples = 1\nvalue = [0, 1]\nclass = churn", fillcolor="#399de5"] ;
356 -> 358 ;
359 [label="gini = 0.0\nsamples = 4\nvalue = [4, 0]\nclass = not_churn", fillcolor="#e58139"] ;
345 -> 359 ;
360 [label="gini = 0.0\nsamples = 6\nvalue = [0, 6]\nclass = churn", fillcolor="#399de5"] ;
344 -> 360 ;
361 [label="Balance <= 103252.789\ngini = 0.405\nsamples = 184\nvalue = [132, 52]\nclass = not_churn", fillcolor="#efb387"] ;
339 -> 361 ;
362 [label="Tenure <= 5.5\ngini = 0.229\nsamples = 53\nvalue = [46, 7]\nclass = not_churn", fillcolor="#e99457"] ;
361 -> 362 ;
363 [label="HasCrCard <= 0.5\ngini = 0.334\nsamples = 33\nvalue = [26, 7]\nclass = not_churn", fillcolor="#eca36e"] ;
362 -> 363 ;
364 [label="EstimatedSalary <= 130454.094\ngini = 0.49\nsamples = 7\nvalue = [4, 3]\nclass = not_churn", fillcolor="#f8e0ce"] ;
363 -> 364 ;
365 [label="CreditScore <= 536.0\ngini = 0.32\nsamples = 5\nvalue = [4, 1]\nclass = not_churn", fillcolor="#eca06a"] ;
364 -> 365 ;
366 [label="gini = 0.0\nsamples = 1\nvalue = [0, 1]\nclass = churn", fillcolor="#399de5"] ;
365 -> 366 ;
367 [label="gini = 0.0\nsamples = 4\nvalue = [4, 0]\nclass = not_churn", fillcolor="#e58139"] ;
365 -> 367 ;
368 [label="gini = 0.0\nsamples = 2\nvalue = [0, 2]\nclass = churn", fillcolor="#399de5"] ;
364 -> 368 ;
369 [label="Tenure <= 1.5\ngini = 0.26\nsamples = 26\nvalue = [22, 4]\nclass = not_churn", fillcolor="#ea985d"] ;
363 -> 369 ;
370 [label="gini = 0.0\nsamples = 12\nvalue = [12, 0]\nclass = not_churn", fillcolor="#e58139"] ;
369 -> 370 ;
371 [label="Balance <= 93196.438\ngini = 0.408\nsamples = 14\nvalue = [10, 4]\nclass = not_churn", fillcolor="#efb388"] ;
369 -> 371 ;
372 [label="Balance <= 56087.066\ngini = 0.298\nsamples = 11\nvalue = [9, 2]\nclass = not_churn", fillcolor="#eb9d65"] ;
371 -> 372 ;
373 [label="gini = 0.0\nsamples = 1\nvalue = [0, 1]\nclass = churn", fillcolor="#399de5"] ;
372 -> 373 ;
374 [label="Balance <= 75147.621\ngini = 0.18\nsamples = 10\nvalue = [9, 1]\nclass = not_churn", fillcolor="#e88f4f"] ;
372 -> 374 ;
375 [label="CreditScore <= 593.5\ngini = 0.444\nsamples = 3\nvalue = [2, 1]\nclass = not_churn", fillcolor="#f2c09c"] ;
374 -> 375 ;
376 [label="gini = 0.0\nsamples = 2\nvalue = [2, 0]\nclass = not_churn", fillcolor="#e58139"] ;
375 -> 376 ;
377 [label="gini = 0.0\nsamples = 1\nvalue = [0, 1]\nclass = churn", fillcolor="#399de5"] ;
375 -> 377 ;
378 [label="gini = 0.0\nsamples = 7\nvalue = [7, 0]\nclass = not_churn", fillcolor="#e58139"] ;
374 -> 378 ;
379 [label="EstimatedSalary <= 161976.438\ngini = 0.444\nsamples = 3\nvalue = [1, 2]\nclass = churn", fillcolor="#9ccef2"] ;
371 -> 379 ;
380 [label="gini = 0.0\nsamples = 2\nvalue = [0, 2]\nclass = churn", fillcolor="#399de5"] ;
379 -> 380 ;
381 [label="gini = 0.0\nsamples = 1\nvalue = [1, 0]\nclass = not_churn", fillcolor="#e58139"] ;
379 -> 381 ;
382 [label="gini = 0.0\nsamples = 20\nvalue = [20, 0]\nclass = not_churn", fillcolor="#e58139"] ;
362 -> 382 ;
383 [label="HasCrCard <= 0.5\ngini = 0.451\nsamples = 131\nvalue = [86, 45]\nclass = not_churn", fillcolor="#f3c3a1"] ;
361 -> 383 ;
384 [label="Age <= 40.5\ngini = 0.312\nsamples = 31\nvalue = [25, 6]\nclass = not_churn", fillcolor="#eb9f69"] ;
383 -> 384 ;
385 [label="Balance <= 108321.824\ngini = 0.147\nsamples = 25\nvalue = [23, 2]\nclass = not_churn", fillcolor="#e78c4a"] ;
384 -> 385 ;
386 [label="gini = 0.0\nsamples = 1\nvalue = [0, 1]\nclass = churn", fillcolor="#399de5"] ;
385 -> 386 ;
387 [label="EstimatedSalary <= 156073.898\ngini = 0.08\nsamples = 24\nvalue = [23, 1]\nclass = not_churn", fillcolor="#e68642"] ;
385 -> 387 ;
388 [label="gini = 0.0\nsamples = 18\nvalue = [18, 0]\nclass = not_churn", fillcolor="#e58139"] ;
387 -> 388 ;
389 [label="EstimatedSalary <= 167070.789\ngini = 0.278\nsamples = 6\nvalue = [5, 1]\nclass = not_churn", fillcolor="#ea9a61"] ;
387 -> 389 ;
390 [label="gini = 0.0\nsamples = 1\nvalue = [0, 1]\nclass = churn", fillcolor="#399de5"] ;
389 -> 390 ;
391 [label="gini = 0.0\nsamples = 5\nvalue = [5, 0]\nclass = not_churn", fillcolor="#e58139"] ;
389 -> 391 ;
392 [label="EstimatedSalary <= 131650.707\ngini = 0.444\nsamples = 6\nvalue = [2, 4]\nclass = churn", fillcolor="#9ccef2"] ;
384 -> 392 ;
393 [label="gini = 0.0\nsamples = 2\nvalue = [2, 0]\nclass = not_churn", fillcolor="#e58139"] ;
392 -> 393 ;
394 [label="gini = 0.0\nsamples = 4\nvalue = [0, 4]\nclass = churn", fillcolor="#399de5"] ;
392 -> 394 ;
395 [label="EstimatedSalary <= 11091.4\ngini = 0.476\nsamples = 100\nvalue = [61, 39]\nclass = not_churn", fillcolor="#f6d2b8"] ;
383 -> 395 ;
396 [label="gini = 0.0\nsamples = 3\nvalue = [0, 3]\nclass = churn", fillcolor="#399de5"] ;
395 -> 396 ;
397 [label="Balance <= 119897.121\ngini = 0.467\nsamples = 97\nvalue = [61, 36]\nclass = not_churn", fillcolor="#f4cbae"] ;
395 -> 397 ;
398 [label="EstimatedSalary <= 61783.164\ngini = 0.328\nsamples = 29\nvalue = [23, 6]\nclass = not_churn", fillcolor="#eca26d"] ;
397 -> 398 ;
399 [label="Geography <= 1.5\ngini = 0.496\nsamples = 11\nvalue = [6, 5]\nclass = not_churn", fillcolor="#fbeade"] ;
398 -> 399 ;
400 [label="CreditScore <= 687.5\ngini = 0.469\nsamples = 8\nvalue = [3, 5]\nclass = churn", fillcolor="#b0d8f5"] ;
399 -> 400 ;
401 [label="EstimatedSalary <= 51100.74\ngini = 0.48\nsamples = 5\nvalue = [3, 2]\nclass = not_churn", fillcolor="#f6d5bd"] ;
400 -> 401 ;
402 [label="Balance <= 104543.109\ngini = 0.444\nsamples = 3\nvalue = [1, 2]\nclass = churn", fillcolor="#9ccef2"] ;
401 -> 402 ;
403 [label="gini = 0.0\nsamples = 1\nvalue = [1, 0]\nclass = not_churn", fillcolor="#e58139"] ;
402 -> 403 ;
404 [label="gini = 0.0\nsamples = 2\nvalue = [0, 2]\nclass = churn", fillcolor="#399de5"] ;
402 -> 404 ;
405 [label="gini = 0.0\nsamples = 2\nvalue = [2, 0]\nclass = not_churn", fillcolor="#e58139"] ;
401 -> 405 ;
406 [label="gini = 0.0\nsamples = 3\nvalue = [0, 3]\nclass = churn", fillcolor="#399de5"] ;
400 -> 406 ;
407 [label="gini = 0.0\nsamples = 3\nvalue = [3, 0]\nclass = not_churn", fillcolor="#e58139"] ;
399 -> 407 ;
408 [label="Balance <= 105233.93\ngini = 0.105\nsamples = 18\nvalue = [17, 1]\nclass = not_churn", fillcolor="#e78845"] ;
398 -> 408 ;
409 [label="Geography <= 1.5\ngini = 0.444\nsamples = 3\nvalue = [2, 1]\nclass = not_churn", fillcolor="#f2c09c"] ;
408 -> 409 ;
410 [label="gini = 0.0\nsamples = 2\nvalue = [2, 0]\nclass = not_churn", fillcolor="#e58139"] ;
409 -> 410 ;
411 [label="gini = 0.0\nsamples = 1\nvalue = [0, 1]\nclass = churn", fillcolor="#399de5"] ;
409 -> 411 ;
412 [label="gini = 0.0\nsamples = 15\nvalue = [15, 0]\nclass = not_churn", fillcolor="#e58139"] ;
408 -> 412 ;
413 [label="Age <= 39.5\ngini = 0.493\nsamples = 68\nvalue = [38, 30]\nclass = not_churn", fillcolor="#fae4d5"] ;
397 -> 413 ;
414 [label="CreditScore <= 592.0\ngini = 0.463\nsamples = 22\nvalue = [8, 14]\nclass = churn", fillcolor="#aad5f4"] ;
413 -> 414 ;
415 [label="Geography <= 0.5\ngini = 0.408\nsamples = 7\nvalue = [5, 2]\nclass = not_churn", fillcolor="#efb388"] ;
414 -> 415 ;
416 [label="gini = 0.0\nsamples = 4\nvalue = [4, 0]\nclass = not_churn", fillcolor="#e58139"] ;
415 -> 416 ;
417 [label="Balance <= 133388.898\ngini = 0.444\nsamples = 3\nvalue = [1, 2]\nclass = churn", fillcolor="#9ccef2"] ;
415 -> 417 ;
418 [label="gini = 0.0\nsamples = 1\nvalue = [1, 0]\nclass = not_churn", fillcolor="#e58139"] ;
417 -> 418 ;
419 [label="gini = 0.0\nsamples = 2\nvalue = [0, 2]\nclass = churn", fillcolor="#399de5"] ;
417 -> 419 ;
420 [label="CreditScore <= 719.5\ngini = 0.32\nsamples = 15\nvalue = [3, 12]\nclass = churn", fillcolor="#6ab6ec"] ;
414 -> 420 ;
421 [label="EstimatedSalary <= 92794.285\ngini = 0.42\nsamples = 10\nvalue = [3, 7]\nclass = churn", fillcolor="#8ec7f0"] ;
420 -> 421 ;
422 [label="Tenure <= 7.0\ngini = 0.5\nsamples = 6\nvalue = [3, 3]\nclass = not_churn", fillcolor="#ffffff"] ;
421 -> 422 ;
423 [label="gini = 0.0\nsamples = 2\nvalue = [2, 0]\nclass = not_churn", fillcolor="#e58139"] ;
422 -> 423 ;
424 [label="Balance <= 126493.977\ngini = 0.375\nsamples = 4\nvalue = [1, 3]\nclass = churn", fillcolor="#7bbeee"] ;
422 -> 424 ;
425 [label="gini = 0.0\nsamples = 1\nvalue = [1, 0]\nclass = not_churn", fillcolor="#e58139"] ;
424 -> 425 ;
426 [label="gini = 0.0\nsamples = 3\nvalue = [0, 3]\nclass = churn", fillcolor="#399de5"] ;
424 -> 426 ;
427 [label="gini = 0.0\nsamples = 4\nvalue = [0, 4]\nclass = churn", fillcolor="#399de5"] ;
421 -> 427 ;
428 [label="gini = 0.0\nsamples = 5\nvalue = [0, 5]\nclass = churn", fillcolor="#399de5"] ;
420 -> 428 ;
429 [label="Balance <= 120799.742\ngini = 0.454\nsamples = 46\nvalue = [30, 16]\nclass = not_churn", fillcolor="#f3c4a3"] ;
413 -> 429 ;
430 [label="gini = 0.0\nsamples = 2\nvalue = [0, 2]\nclass = churn", fillcolor="#399de5"] ;
429 -> 430 ;
431 [label="Tenure <= 7.5\ngini = 0.434\nsamples = 44\nvalue = [30, 14]\nclass = not_churn", fillcolor="#f1bc95"] ;
429 -> 431 ;
432 [label="Balance <= 169361.781\ngini = 0.337\nsamples = 28\nvalue = [22, 6]\nclass = not_churn", fillcolor="#eca36f"] ;
431 -> 432 ;
433 [label="EstimatedSalary <= 182074.906\ngini = 0.269\nsamples = 25\nvalue = [21, 4]\nclass = not_churn", fillcolor="#ea995f"] ;
432 -> 433 ;
434 [label="Balance <= 135082.406\ngini = 0.172\nsamples = 21\nvalue = [19, 2]\nclass = not_churn", fillcolor="#e88e4e"] ;
433 -> 434 ;
435 [label="Balance <= 128871.367\ngini = 0.408\nsamples = 7\nvalue = [5, 2]\nclass = not_churn", fillcolor="#efb388"] ;
434 -> 435 ;
436 [label="gini = 0.0\nsamples = 5\nvalue = [5, 0]\nclass = not_churn", fillcolor="#e58139"] ;
435 -> 436 ;
437 [label="gini = 0.0\nsamples = 2\nvalue = [0, 2]\nclass = churn", fillcolor="#399de5"] ;
435 -> 437 ;
438 [label="gini = 0.0\nsamples = 14\nvalue = [14, 0]\nclass = not_churn", fillcolor="#e58139"] ;
434 -> 438 ;
439 [label="Balance <= 138308.531\ngini = 0.5\nsamples = 4\nvalue = [2, 2]\nclass = not_churn", fillcolor="#ffffff"] ;
433 -> 439 ;
440 [label="gini = 0.0\nsamples = 2\nvalue = [2, 0]\nclass = not_churn", fillcolor="#e58139"] ;
439 -> 440 ;
441 [label="gini = 0.0\nsamples = 2\nvalue = [0, 2]\nclass = churn", fillcolor="#399de5"] ;
439 -> 441 ;
442 [label="Gender <= 0.5\ngini = 0.444\nsamples = 3\nvalue = [1, 2]\nclass = churn", fillcolor="#9ccef2"] ;
432 -> 442 ;
443 [label="gini = 0.0\nsamples = 2\nvalue = [0, 2]\nclass = churn", fillcolor="#399de5"] ;
442 -> 443 ;
444 [label="gini = 0.0\nsamples = 1\nvalue = [1, 0]\nclass = not_churn", fillcolor="#e58139"] ;
442 -> 444 ;
445 [label="Gender <= 0.5\ngini = 0.5\nsamples = 16\nvalue = [8, 8]\nclass = not_churn", fillcolor="#ffffff"] ;
431 -> 445 ;
446 [label="EstimatedSalary <= 55131.359\ngini = 0.444\nsamples = 12\nvalue = [4, 8]\nclass = churn", fillcolor="#9ccef2"] ;
445 -> 446 ;
447 [label="gini = 0.0\nsamples = 2\nvalue = [2, 0]\nclass = not_churn", fillcolor="#e58139"] ;
446 -> 447 ;
448 [label="Balance <= 147963.688\ngini = 0.32\nsamples = 10\nvalue = [2, 8]\nclass = churn", fillcolor="#6ab6ec"] ;
446 -> 448 ;
449 [label="Balance <= 124375.473\ngini = 0.198\nsamples = 9\nvalue = [1, 8]\nclass = churn", fillcolor="#52a9e8"] ;
448 -> 449 ;
450 [label="Age <= 40.5\ngini = 0.5\nsamples = 2\nvalue = [1, 1]\nclass = not_churn", fillcolor="#ffffff"] ;
449 -> 450 ;
451 [label="gini = 0.0\nsamples = 1\nvalue = [0, 1]\nclass = churn", fillcolor="#399de5"] ;
450 -> 451 ;
452 [label="gini = 0.0\nsamples = 1\nvalue = [1, 0]\nclass = not_churn", fillcolor="#e58139"] ;
450 -> 452 ;
453 [label="gini = 0.0\nsamples = 7\nvalue = [0, 7]\nclass = churn", fillcolor="#399de5"] ;
449 -> 453 ;
454 [label="gini = 0.0\nsamples = 1\nvalue = [1, 0]\nclass = not_churn", fillcolor="#e58139"] ;
448 -> 454 ;
455 [label="gini = 0.0\nsamples = 4\nvalue = [4, 0]\nclass = not_churn", fillcolor="#e58139"] ;
445 -> 455 ;
456 [label="CreditScore <= 414.5\ngini = 0.196\nsamples = 1168\nvalue = [1039, 129]\nclass = not_churn", fillcolor="#e89152"] ;
4 -> 456 ;
457 [label="Balance <= 114141.297\ngini = 0.32\nsamples = 5\nvalue = [1, 4]\nclass = churn", fillcolor="#6ab6ec"] ;
456 -> 457 ;
458 [label="gini = 0.0\nsamples = 4\nvalue = [0, 4]\nclass = churn", fillcolor="#399de5"] ;
457 -> 458 ;
459 [label="gini = 0.0\nsamples = 1\nvalue = [1, 0]\nclass = not_churn", fillcolor="#e58139"] ;
457 -> 459 ;
460 [label="Age <= 34.5\ngini = 0.192\nsamples = 1163\nvalue = [1038, 125]\nclass = not_churn", fillcolor="#e89051"] ;
456 -> 460 ;
461 [label="Balance <= 199080.883\ngini = 0.147\nsamples = 625\nvalue = [575, 50]\nclass = not_churn", fillcolor="#e78c4a"] ;
460 -> 461 ;
462 [label="CreditScore <= 767.5\ngini = 0.142\nsamples = 623\nvalue = [575, 48]\nclass = not_churn", fillcolor="#e78c4a"] ;
461 -> 462 ;
463 [label="CreditScore <= 649.5\ngini = 0.125\nsamples = 550\nvalue = [513, 37]\nclass = not_churn", fillcolor="#e78a47"] ;
462 -> 463 ;
464 [label="Age <= 18.5\ngini = 0.175\nsamples = 300\nvalue = [271, 29]\nclass = not_churn", fillcolor="#e88e4e"] ;
463 -> 464 ;
465 [label="gini = 0.0\nsamples = 1\nvalue = [0, 1]\nclass = churn", fillcolor="#399de5"] ;
464 -> 465 ;
466 [label="CreditScore <= 648.5\ngini = 0.17\nsamples = 299\nvalue = [271, 28]\nclass = not_churn", fillcolor="#e88e4d"] ;
464 -> 466 ;
467 [label="EstimatedSalary <= 179466.133\ngini = 0.165\nsamples = 298\nvalue = [271, 27]\nclass = not_churn", fillcolor="#e88e4d"] ;
466 -> 467 ;
468 [label="Tenure <= 9.5\ngini = 0.137\nsamples = 270\nvalue = [250, 20]\nclass = not_churn", fillcolor="#e78b49"] ;
467 -> 468 ;
469 [label="CreditScore <= 628.5\ngini = 0.123\nsamples = 259\nvalue = [242, 17]\nclass = not_churn", fillcolor="#e78a47"] ;
468 -> 469 ;
470 [label="EstimatedSalary <= 162464.938\ngini = 0.097\nsamples = 215\nvalue = [204, 11]\nclass = not_churn", fillcolor="#e68844"] ;
469 -> 470 ;
471 [label="CreditScore <= 576.5\ngini = 0.072\nsamples = 188\nvalue = [181, 7]\nclass = not_churn", fillcolor="#e68641"] ;
470 -> 471 ;
472 [label="CreditScore <= 575.5\ngini = 0.108\nsamples = 122\nvalue = [115, 7]\nclass = not_churn", fillcolor="#e78945"] ;
471 -> 472 ;
473 [label="HasCrCard <= 0.5\ngini = 0.094\nsamples = 121\nvalue = [115, 6]\nclass = not_churn", fillcolor="#e68843"] ;
472 -> 473 ;
474 [label="gini = 0.0\nsamples = 37\nvalue = [37, 0]\nclass = not_churn", fillcolor="#e58139"] ;
473 -> 474 ;
475 [label="EstimatedSalary <= 131701.109\ngini = 0.133\nsamples = 84\nvalue = [78, 6]\nclass = not_churn", fillcolor="#e78b48"] ;
473 -> 475 ;
476 [label="EstimatedSalary <= 129553.793\ngini = 0.17\nsamples = 64\nvalue = [58, 6]\nclass = not_churn", fillcolor="#e88e4d"] ;
475 -> 476 ;
477 [label="Age <= 33.5\ngini = 0.146\nsamples = 63\nvalue = [58, 5]\nclass = not_churn", fillcolor="#e78c4a"] ;
476 -> 477 ;
478 [label="Tenure <= 0.5\ngini = 0.101\nsamples = 56\nvalue = [53, 3]\nclass = not_churn", fillcolor="#e68844"] ;
477 -> 478 ;
479 [label="Balance <= 109502.332\ngini = 0.444\nsamples = 3\nvalue = [2, 1]\nclass = not_churn", fillcolor="#f2c09c"] ;
478 -> 479 ;
480 [label="gini = 0.0\nsamples = 1\nvalue = [0, 1]\nclass = churn", fillcolor="#399de5"] ;
479 -> 480 ;
481 [label="gini = 0.0\nsamples = 2\nvalue = [2, 0]\nclass = not_churn", fillcolor="#e58139"] ;
479 -> 481 ;
482 [label="Geography <= 1.5\ngini = 0.073\nsamples = 53\nvalue = [51, 2]\nclass = not_churn", fillcolor="#e68641"] ;
478 -> 482 ;
483 [label="gini = 0.0\nsamples = 37\nvalue = [37, 0]\nclass = not_churn", fillcolor="#e58139"] ;
482 -> 483 ;
484 [label="Tenure <= 5.5\ngini = 0.219\nsamples = 16\nvalue = [14, 2]\nclass = not_churn", fillcolor="#e99355"] ;
482 -> 484 ;
485 [label="CreditScore <= 544.0\ngini = 0.408\nsamples = 7\nvalue = [5, 2]\nclass = not_churn", fillcolor="#efb388"] ;
484 -> 485 ;
486 [label="gini = 0.0\nsamples = 4\nvalue = [4, 0]\nclass = not_churn", fillcolor="#e58139"] ;
485 -> 486 ;
487 [label="Gender <= 0.5\ngini = 0.444\nsamples = 3\nvalue = [1, 2]\nclass = churn", fillcolor="#9ccef2"] ;
485 -> 487 ;
488 [label="gini = 0.0\nsamples = 1\nvalue = [1, 0]\nclass = not_churn", fillcolor="#e58139"] ;
487 -> 488 ;
489 [label="gini = 0.0\nsamples = 2\nvalue = [0, 2]\nclass = churn", fillcolor="#399de5"] ;
487 -> 489 ;
490 [label="gini = 0.0\nsamples = 9\nvalue = [9, 0]\nclass = not_churn", fillcolor="#e58139"] ;
484 -> 490 ;
491 [label="CreditScore <= 522.0\ngini = 0.408\nsamples = 7\nvalue = [5, 2]\nclass = not_churn", fillcolor="#efb388"] ;
477 -> 491 ;
492 [label="gini = 0.0\nsamples = 2\nvalue = [0, 2]\nclass = churn", fillcolor="#399de5"] ;
491 -> 492 ;
493 [label="gini = 0.0\nsamples = 5\nvalue = [5, 0]\nclass = not_churn", fillcolor="#e58139"] ;
491 -> 493 ;
494 [label="gini = 0.0\nsamples = 1\nvalue = [0, 1]\nclass = churn", fillcolor="#399de5"] ;
476 -> 494 ;
495 [label="gini = 0.0\nsamples = 20\nvalue = [20, 0]\nclass = not_churn", fillcolor="#e58139"] ;
475 -> 495 ;
496 [label="gini = 0.0\nsamples = 1\nvalue = [0, 1]\nclass = churn", fillcolor="#399de5"] ;
472 -> 496 ;
497 [label="gini = 0.0\nsamples = 66\nvalue = [66, 0]\nclass = not_churn", fillcolor="#e58139"] ;
471 -> 497 ;
498 [label="EstimatedSalary <= 165457.867\ngini = 0.252\nsamples = 27\nvalue = [23, 4]\nclass = not_churn", fillcolor="#ea975b"] ;
470 -> 498 ;
499 [label="gini = 0.0\nsamples = 3\nvalue = [0, 3]\nclass = churn", fillcolor="#399de5"] ;
498 -> 499 ;
500 [label="CreditScore <= 509.0\ngini = 0.08\nsamples = 24\nvalue = [23, 1]\nclass = not_churn", fillcolor="#e68642"] ;
498 -> 500 ;
501 [label="CreditScore <= 477.0\ngini = 0.375\nsamples = 4\nvalue = [3, 1]\nclass = not_churn", fillcolor="#eeab7b"] ;
500 -> 501 ;
502 [label="gini = 0.0\nsamples = 3\nvalue = [3, 0]\nclass = not_churn", fillcolor="#e58139"] ;
501 -> 502 ;
503 [label="gini = 0.0\nsamples = 1\nvalue = [0, 1]\nclass = churn", fillcolor="#399de5"] ;
501 -> 503 ;
504 [label="gini = 0.0\nsamples = 20\nvalue = [20, 0]\nclass = not_churn", fillcolor="#e58139"] ;
500 -> 504 ;
505 [label="CreditScore <= 631.5\ngini = 0.236\nsamples = 44\nvalue = [38, 6]\nclass = not_churn", fillcolor="#e99558"] ;
469 -> 505 ;
506 [label="Age <= 28.5\ngini = 0.49\nsamples = 7\nvalue = [4, 3]\nclass = not_churn", fillcolor="#f8e0ce"] ;
505 -> 506 ;
507 [label="gini = 0.0\nsamples = 3\nvalue = [3, 0]\nclass = not_churn", fillcolor="#e58139"] ;
506 -> 507 ;
508 [label="Balance <= 132115.469\ngini = 0.375\nsamples = 4\nvalue = [1, 3]\nclass = churn", fillcolor="#7bbeee"] ;
506 -> 508 ;
509 [label="gini = 0.0\nsamples = 3\nvalue = [0, 3]\nclass = churn", fillcolor="#399de5"] ;
508 -> 509 ;
510 [label="gini = 0.0\nsamples = 1\nvalue = [1, 0]\nclass = not_churn", fillcolor="#e58139"] ;
508 -> 510 ;
511 [label="Gender <= 0.5\ngini = 0.149\nsamples = 37\nvalue = [34, 3]\nclass = not_churn", fillcolor="#e78c4a"] ;
505 -> 511 ;
512 [label="Balance <= 123181.188\ngini = 0.32\nsamples = 15\nvalue = [12, 3]\nclass = not_churn", fillcolor="#eca06a"] ;
511 -> 512 ;
513 [label="CreditScore <= 646.0\ngini = 0.153\nsamples = 12\nvalue = [11, 1]\nclass = not_churn", fillcolor="#e78c4b"] ;
512 -> 513 ;
514 [label="gini = 0.0\nsamples = 10\nvalue = [10, 0]\nclass = not_churn", fillcolor="#e58139"] ;
513 -> 514 ;
515 [label="Tenure <= 8.5\ngini = 0.5\nsamples = 2\nvalue = [1, 1]\nclass = not_churn", fillcolor="#ffffff"] ;
513 -> 515 ;
516 [label="gini = 0.0\nsamples = 1\nvalue = [0, 1]\nclass = churn", fillcolor="#399de5"] ;
515 -> 516 ;
517 [label="gini = 0.0\nsamples = 1\nvalue = [1, 0]\nclass = not_churn", fillcolor="#e58139"] ;
515 -> 517 ;
518 [label="Geography <= 1.5\ngini = 0.444\nsamples = 3\nvalue = [1, 2]\nclass = churn", fillcolor="#9ccef2"] ;
512 -> 518 ;
519 [label="gini = 0.0\nsamples = 2\nvalue = [0, 2]\nclass = churn", fillcolor="#399de5"] ;
518 -> 519 ;
520 [label="gini = 0.0\nsamples = 1\nvalue = [1, 0]\nclass = not_churn", fillcolor="#e58139"] ;
518 -> 520 ;
521 [label="gini = 0.0\nsamples = 22\nvalue = [22, 0]\nclass = not_churn", fillcolor="#e58139"] ;
511 -> 521 ;
522 [label="Geography <= 0.5\ngini = 0.397\nsamples = 11\nvalue = [8, 3]\nclass = not_churn", fillcolor="#efb083"] ;
468 -> 522 ;
523 [label="gini = 0.0\nsamples = 6\nvalue = [6, 0]\nclass = not_churn", fillcolor="#e58139"] ;
522 -> 523 ;
524 [label="EstimatedSalary <= 130272.695\ngini = 0.48\nsamples = 5\nvalue = [2, 3]\nclass = churn", fillcolor="#bddef6"] ;
522 -> 524 ;
525 [label="gini = 0.0\nsamples = 3\nvalue = [0, 3]\nclass = churn", fillcolor="#399de5"] ;
524 -> 525 ;
526 [label="gini = 0.0\nsamples = 2\nvalue = [2, 0]\nclass = not_churn", fillcolor="#e58139"] ;
524 -> 526 ;
527 [label="EstimatedSalary <= 183585.578\ngini = 0.375\nsamples = 28\nvalue = [21, 7]\nclass = not_churn", fillcolor="#eeab7b"] ;
467 -> 527 ;
528 [label="Age <= 27.0\ngini = 0.278\nsamples = 6\nvalue = [1, 5]\nclass = churn", fillcolor="#61b1ea"] ;
527 -> 528 ;
529 [label="gini = 0.0\nsamples = 1\nvalue = [1, 0]\nclass = not_churn", fillcolor="#e58139"] ;
528 -> 529 ;
530 [label="gini = 0.0\nsamples = 5\nvalue = [0, 5]\nclass = churn", fillcolor="#399de5"] ;
528 -> 530 ;
531 [label="Age <= 27.0\ngini = 0.165\nsamples = 22\nvalue = [20, 2]\nclass = not_churn", fillcolor="#e88e4d"] ;
527 -> 531 ;
532 [label="Geography <= 1.5\ngini = 0.444\nsamples = 6\nvalue = [4, 2]\nclass = not_churn", fillcolor="#f2c09c"] ;
531 -> 532 ;
533 [label="Age <= 23.0\ngini = 0.444\nsamples = 3\nvalue = [1, 2]\nclass = churn", fillcolor="#9ccef2"] ;
532 -> 533 ;
534 [label="gini = 0.0\nsamples = 1\nvalue = [1, 0]\nclass = not_churn", fillcolor="#e58139"] ;
533 -> 534 ;
535 [label="gini = 0.0\nsamples = 2\nvalue = [0, 2]\nclass = churn", fillcolor="#399de5"] ;
533 -> 535 ;
536 [label="gini = 0.0\nsamples = 3\nvalue = [3, 0]\nclass = not_churn", fillcolor="#e58139"] ;
532 -> 536 ;
537 [label="gini = 0.0\nsamples = 16\nvalue = [16, 0]\nclass = not_churn", fillcolor="#e58139"] ;
531 -> 537 ;
538 [label="gini = 0.0\nsamples = 1\nvalue = [0, 1]\nclass = churn", fillcolor="#399de5"] ;
466 -> 538 ;
539 [label="Age <= 31.5\ngini = 0.062\nsamples = 250\nvalue = [242, 8]\nclass = not_churn", fillcolor="#e68540"] ;
463 -> 539 ;
540 [label="EstimatedSalary <= 109633.797\ngini = 0.035\nsamples = 169\nvalue = [166, 3]\nclass = not_churn", fillcolor="#e5833d"] ;
539 -> 540 ;
541 [label="EstimatedSalary <= 108454.625\ngini = 0.061\nsamples = 95\nvalue = [92, 3]\nclass = not_churn", fillcolor="#e6853f"] ;
540 -> 541 ;
542 [label="CreditScore <= 659.5\ngini = 0.042\nsamples = 94\nvalue = [92, 2]\nclass = not_churn", fillcolor="#e6843d"] ;
541 -> 542 ;
543 [label="CreditScore <= 658.5\ngini = 0.198\nsamples = 9\nvalue = [8, 1]\nclass = not_churn", fillcolor="#e89152"] ;
542 -> 543 ;
544 [label="gini = 0.0\nsamples = 7\nvalue = [7, 0]\nclass = not_churn", fillcolor="#e58139"] ;
543 -> 544 ;
545 [label="Geography <= 0.5\ngini = 0.5\nsamples = 2\nvalue = [1, 1]\nclass = not_churn", fillcolor="#ffffff"] ;
543 -> 545 ;
546 [label="gini = 0.0\nsamples = 1\nvalue = [0, 1]\nclass = churn", fillcolor="#399de5"] ;
545 -> 546 ;
547 [label="gini = 0.0\nsamples = 1\nvalue = [1, 0]\nclass = not_churn", fillcolor="#e58139"] ;
545 -> 547 ;
548 [label="Tenure <= 6.5\ngini = 0.023\nsamples = 85\nvalue = [84, 1]\nclass = not_churn", fillcolor="#e5823b"] ;
542 -> 548 ;
549 [label="gini = 0.0\nsamples = 63\nvalue = [63, 0]\nclass = not_churn", fillcolor="#e58139"] ;
548 -> 549 ;
550 [label="Tenure <= 7.5\ngini = 0.087\nsamples = 22\nvalue = [21, 1]\nclass = not_churn", fillcolor="#e68742"] ;
548 -> 550 ;
551 [label="Geography <= 0.5\ngini = 0.278\nsamples = 6\nvalue = [5, 1]\nclass = not_churn", fillcolor="#ea9a61"] ;
550 -> 551 ;
552 [label="gini = 0.0\nsamples = 3\nvalue = [3, 0]\nclass = not_churn", fillcolor="#e58139"] ;
551 -> 552 ;
553 [label="Balance <= 114635.652\ngini = 0.444\nsamples = 3\nvalue = [2, 1]\nclass = not_churn", fillcolor="#f2c09c"] ;
551 -> 553 ;
554 [label="gini = 0.0\nsamples = 1\nvalue = [0, 1]\nclass = churn", fillcolor="#399de5"] ;
553 -> 554 ;
555 [label="gini = 0.0\nsamples = 2\nvalue = [2, 0]\nclass = not_churn", fillcolor="#e58139"] ;
553 -> 555 ;
556 [label="gini = 0.0\nsamples = 16\nvalue = [16, 0]\nclass = not_churn", fillcolor="#e58139"] ;
550 -> 556 ;
557 [label="gini = 0.0\nsamples = 1\nvalue = [0, 1]\nclass = churn", fillcolor="#399de5"] ;
541 -> 557 ;
558 [label="gini = 0.0\nsamples = 74\nvalue = [74, 0]\nclass = not_churn", fillcolor="#e58139"] ;
540 -> 558 ;
559 [label="Tenure <= 4.5\ngini = 0.116\nsamples = 81\nvalue = [76, 5]\nclass = not_churn", fillcolor="#e78946"] ;
539 -> 559 ;
560 [label="EstimatedSalary <= 184648.844\ngini = 0.224\nsamples = 39\nvalue = [34, 5]\nclass = not_churn", fillcolor="#e99456"] ;
559 -> 560 ;
561 [label="Balance <= 126207.598\ngini = 0.188\nsamples = 38\nvalue = [34, 4]\nclass = not_churn", fillcolor="#e89050"] ;
560 -> 561 ;
562 [label="gini = 0.0\nsamples = 23\nvalue = [23, 0]\nclass = not_churn", fillcolor="#e58139"] ;
561 -> 562 ;
563 [label="Tenure <= 2.5\ngini = 0.391\nsamples = 15\nvalue = [11, 4]\nclass = not_churn", fillcolor="#eeaf81"] ;
561 -> 563 ;
564 [label="gini = 0.0\nsamples = 9\nvalue = [9, 0]\nclass = not_churn", fillcolor="#e58139"] ;
563 -> 564 ;
565 [label="EstimatedSalary <= 44793.615\ngini = 0.444\nsamples = 6\nvalue = [2, 4]\nclass = churn", fillcolor="#9ccef2"] ;
563 -> 565 ;
566 [label="Balance <= 134561.258\ngini = 0.444\nsamples = 3\nvalue = [2, 1]\nclass = not_churn", fillcolor="#f2c09c"] ;
565 -> 566 ;
567 [label="gini = 0.0\nsamples = 1\nvalue = [0, 1]\nclass = churn", fillcolor="#399de5"] ;
566 -> 567 ;
568 [label="gini = 0.0\nsamples = 2\nvalue = [2, 0]\nclass = not_churn", fillcolor="#e58139"] ;
566 -> 568 ;
569 [label="gini = 0.0\nsamples = 3\nvalue = [0, 3]\nclass = churn", fillcolor="#399de5"] ;
565 -> 569 ;
570 [label="gini = 0.0\nsamples = 1\nvalue = [0, 1]\nclass = churn", fillcolor="#399de5"] ;
560 -> 570 ;
571 [label="gini = 0.0\nsamples = 42\nvalue = [42, 0]\nclass = not_churn", fillcolor="#e58139"] ;
559 -> 571 ;
572 [label="CreditScore <= 803.5\ngini = 0.256\nsamples = 73\nvalue = [62, 11]\nclass = not_churn", fillcolor="#ea975c"] ;
462 -> 572 ;
573 [label="Gender <= 0.5\ngini = 0.401\nsamples = 36\nvalue = [26, 10]\nclass = not_churn", fillcolor="#efb185"] ;
572 -> 573 ;
574 [label="Balance <= 168924.352\ngini = 0.488\nsamples = 19\nvalue = [11, 8]\nclass = not_churn", fillcolor="#f8ddc9"] ;
573 -> 574 ;
575 [label="EstimatedSalary <= 119583.605\ngini = 0.457\nsamples = 17\nvalue = [11, 6]\nclass = not_churn", fillcolor="#f3c6a5"] ;
574 -> 575 ;
576 [label="CreditScore <= 771.0\ngini = 0.32\nsamples = 10\nvalue = [8, 2]\nclass = not_churn", fillcolor="#eca06a"] ;
575 -> 576 ;
577 [label="EstimatedSalary <= 64165.42\ngini = 0.444\nsamples = 3\nvalue = [1, 2]\nclass = churn", fillcolor="#9ccef2"] ;
576 -> 577 ;
578 [label="gini = 0.0\nsamples = 1\nvalue = [1, 0]\nclass = not_churn", fillcolor="#e58139"] ;
577 -> 578 ;
579 [label="gini = 0.0\nsamples = 2\nvalue = [0, 2]\nclass = churn", fillcolor="#399de5"] ;
577 -> 579 ;
580 [label="gini = 0.0\nsamples = 7\nvalue = [7, 0]\nclass = not_churn", fillcolor="#e58139"] ;
576 -> 580 ;
581 [label="EstimatedSalary <= 168091.609\ngini = 0.49\nsamples = 7\nvalue = [3, 4]\nclass = churn", fillcolor="#cee6f8"] ;
575 -> 581 ;
582 [label="Geography <= 1.5\ngini = 0.32\nsamples = 5\nvalue = [1, 4]\nclass = churn", fillcolor="#6ab6ec"] ;
581 -> 582 ;
583 [label="gini = 0.0\nsamples = 4\nvalue = [0, 4]\nclass = churn", fillcolor="#399de5"] ;
582 -> 583 ;
584 [label="gini = 0.0\nsamples = 1\nvalue = [1, 0]\nclass = not_churn", fillcolor="#e58139"] ;
582 -> 584 ;
585 [label="gini = 0.0\nsamples = 2\nvalue = [2, 0]\nclass = not_churn", fillcolor="#e58139"] ;
581 -> 585 ;
586 [label="gini = 0.0\nsamples = 2\nvalue = [0, 2]\nclass = churn", fillcolor="#399de5"] ;
574 -> 586 ;
587 [label="Balance <= 148724.562\ngini = 0.208\nsamples = 17\nvalue = [15, 2]\nclass = not_churn", fillcolor="#e89253"] ;
573 -> 587 ;
588 [label="gini = 0.0\nsamples = 12\nvalue = [12, 0]\nclass = not_churn", fillcolor="#e58139"] ;
587 -> 588 ;
589 [label="Balance <= 166966.961\ngini = 0.48\nsamples = 5\nvalue = [3, 2]\nclass = not_churn", fillcolor="#f6d5bd"] ;
587 -> 589 ;
590 [label="Geography <= 1.5\ngini = 0.444\nsamples = 3\nvalue = [1, 2]\nclass = churn", fillcolor="#9ccef2"] ;
589 -> 590 ;
591 [label="gini = 0.0\nsamples = 2\nvalue = [0, 2]\nclass = churn", fillcolor="#399de5"] ;
590 -> 591 ;
592 [label="gini = 0.0\nsamples = 1\nvalue = [1, 0]\nclass = not_churn", fillcolor="#e58139"] ;
590 -> 592 ;
593 [label="gini = 0.0\nsamples = 2\nvalue = [2, 0]\nclass = not_churn", fillcolor="#e58139"] ;
589 -> 593 ;
594 [label="Tenure <= 8.5\ngini = 0.053\nsamples = 37\nvalue = [36, 1]\nclass = not_churn", fillcolor="#e6843e"] ;
572 -> 594 ;
595 [label="gini = 0.0\nsamples = 29\nvalue = [29, 0]\nclass = not_churn", fillcolor="#e58139"] ;
594 -> 595 ;
596 [label="Age <= 27.5\ngini = 0.219\nsamples = 8\nvalue = [7, 1]\nclass = not_churn", fillcolor="#e99355"] ;
594 -> 596 ;
597 [label="HasCrCard <= 0.5\ngini = 0.5\nsamples = 2\nvalue = [1, 1]\nclass = not_churn", fillcolor="#ffffff"] ;
596 -> 597 ;
598 [label="gini = 0.0\nsamples = 1\nvalue = [1, 0]\nclass = not_churn", fillcolor="#e58139"] ;
597 -> 598 ;
599 [label="gini = 0.0\nsamples = 1\nvalue = [0, 1]\nclass = churn", fillcolor="#399de5"] ;
597 -> 599 ;
600 [label="gini = 0.0\nsamples = 6\nvalue = [6, 0]\nclass = not_churn", fillcolor="#e58139"] ;
596 -> 600 ;
601 [label="gini = 0.0\nsamples = 2\nvalue = [0, 2]\nclass = churn", fillcolor="#399de5"] ;
461 -> 601 ;
602 [label="Geography <= 1.5\ngini = 0.24\nsamples = 538\nvalue = [463, 75]\nclass = not_churn", fillcolor="#e99559"] ;
460 -> 602 ;
603 [label="Geography <= 0.5\ngini = 0.284\nsamples = 402\nvalue = [333, 69]\nclass = not_churn", fillcolor="#ea9b62"] ;
602 -> 603 ;
604 [label="Balance <= 74737.746\ngini = 0.213\nsamples = 280\nvalue = [246, 34]\nclass = not_churn", fillcolor="#e99254"] ;
603 -> 604 ;
605 [label="Balance <= 70853.582\ngini = 0.333\nsamples = 71\nvalue = [56, 15]\nclass = not_churn", fillcolor="#eca36e"] ;
604 -> 605 ;
606 [label="EstimatedSalary <= 173535.969\ngini = 0.306\nsamples = 69\nvalue = [56, 13]\nclass = not_churn", fillcolor="#eb9e67"] ;
605 -> 606 ;
607 [label="EstimatedSalary <= 75156.309\ngini = 0.271\nsamples = 62\nvalue = [52, 10]\nclass = not_churn", fillcolor="#ea995f"] ;
606 -> 607 ;
608 [label="EstimatedSalary <= 48608.475\ngini = 0.391\nsamples = 30\nvalue = [22, 8]\nclass = not_churn", fillcolor="#eeaf81"] ;
607 -> 608 ;
609 [label="Tenure <= 9.5\ngini = 0.188\nsamples = 19\nvalue = [17, 2]\nclass = not_churn", fillcolor="#e89050"] ;
608 -> 609 ;
610 [label="HasCrCard <= 0.5\ngini = 0.111\nsamples = 17\nvalue = [16, 1]\nclass = not_churn", fillcolor="#e78945"] ;
609 -> 610 ;
611 [label="CreditScore <= 739.0\ngini = 0.444\nsamples = 3\nvalue = [2, 1]\nclass = not_churn", fillcolor="#f2c09c"] ;
610 -> 611 ;
612 [label="gini = 0.0\nsamples = 1\nvalue = [0, 1]\nclass = churn", fillcolor="#399de5"] ;
611 -> 612 ;
613 [label="gini = 0.0\nsamples = 2\nvalue = [2, 0]\nclass = not_churn", fillcolor="#e58139"] ;
611 -> 613 ;
614 [label="gini = 0.0\nsamples = 14\nvalue = [14, 0]\nclass = not_churn", fillcolor="#e58139"] ;
610 -> 614 ;
615 [label="Gender <= 0.5\ngini = 0.5\nsamples = 2\nvalue = [1, 1]\nclass = not_churn", fillcolor="#ffffff"] ;
609 -> 615 ;
616 [label="gini = 0.0\nsamples = 1\nvalue = [1, 0]\nclass = not_churn", fillcolor="#e58139"] ;
615 -> 616 ;
617 [label="gini = 0.0\nsamples = 1\nvalue = [0, 1]\nclass = churn", fillcolor="#399de5"] ;
615 -> 617 ;
618 [label="EstimatedSalary <= 56878.15\ngini = 0.496\nsamples = 11\nvalue = [5, 6]\nclass = churn", fillcolor="#deeffb"] ;
608 -> 618 ;
619 [label="CreditScore <= 511.5\ngini = 0.32\nsamples = 5\nvalue = [1, 4]\nclass = churn", fillcolor="#6ab6ec"] ;
618 -> 619 ;
620 [label="gini = 0.0\nsamples = 1\nvalue = [1, 0]\nclass = not_churn", fillcolor="#e58139"] ;
619 -> 620 ;
621 [label="gini = 0.0\nsamples = 4\nvalue = [0, 4]\nclass = churn", fillcolor="#399de5"] ;
619 -> 621 ;
622 [label="EstimatedSalary <= 66875.258\ngini = 0.444\nsamples = 6\nvalue = [4, 2]\nclass = not_churn", fillcolor="#f2c09c"] ;
618 -> 622 ;
623 [label="gini = 0.0\nsamples = 4\nvalue = [4, 0]\nclass = not_churn", fillcolor="#e58139"] ;
622 -> 623 ;
624 [label="gini = 0.0\nsamples = 2\nvalue = [0, 2]\nclass = churn", fillcolor="#399de5"] ;
622 -> 624 ;
625 [label="Tenure <= 9.5\ngini = 0.117\nsamples = 32\nvalue = [30, 2]\nclass = not_churn", fillcolor="#e78946"] ;
607 -> 625 ;
626 [label="Balance <= 46942.57\ngini = 0.064\nsamples = 30\nvalue = [29, 1]\nclass = not_churn", fillcolor="#e68540"] ;
625 -> 626 ;
627 [label="gini = 0.0\nsamples = 26\nvalue = [26, 0]\nclass = not_churn", fillcolor="#e58139"] ;
626 -> 627 ;
628 [label="Balance <= 50366.789\ngini = 0.375\nsamples = 4\nvalue = [3, 1]\nclass = not_churn", fillcolor="#eeab7b"] ;
626 -> 628 ;
629 [label="gini = 0.0\nsamples = 1\nvalue = [0, 1]\nclass = churn", fillcolor="#399de5"] ;
628 -> 629 ;
630 [label="gini = 0.0\nsamples = 3\nvalue = [3, 0]\nclass = not_churn", fillcolor="#e58139"] ;
628 -> 630 ;
631 [label="Gender <= 0.5\ngini = 0.5\nsamples = 2\nvalue = [1, 1]\nclass = not_churn", fillcolor="#ffffff"] ;
625 -> 631 ;
632 [label="gini = 0.0\nsamples = 1\nvalue = [0, 1]\nclass = churn", fillcolor="#399de5"] ;
631 -> 632 ;
633 [label="gini = 0.0\nsamples = 1\nvalue = [1, 0]\nclass = not_churn", fillcolor="#e58139"] ;
631 -> 633 ;
634 [label="CreditScore <= 606.0\ngini = 0.49\nsamples = 7\nvalue = [4, 3]\nclass = not_churn", fillcolor="#f8e0ce"] ;
606 -> 634 ;
635 [label="gini = 0.0\nsamples = 3\nvalue = [3, 0]\nclass = not_churn", fillcolor="#e58139"] ;
634 -> 635 ;
636 [label="Gender <= 0.5\ngini = 0.375\nsamples = 4\nvalue = [1, 3]\nclass = churn", fillcolor="#7bbeee"] ;
634 -> 636 ;
637 [label="gini = 0.0\nsamples = 1\nvalue = [1, 0]\nclass = not_churn", fillcolor="#e58139"] ;
636 -> 637 ;
638 [label="gini = 0.0\nsamples = 3\nvalue = [0, 3]\nclass = churn", fillcolor="#399de5"] ;
636 -> 638 ;
639 [label="gini = 0.0\nsamples = 2\nvalue = [0, 2]\nclass = churn", fillcolor="#399de5"] ;
605 -> 639 ;
640 [label="Balance <= 155563.0\ngini = 0.165\nsamples = 209\nvalue = [190, 19]\nclass = not_churn", fillcolor="#e88e4d"] ;
604 -> 640 ;
641 [label="EstimatedSalary <= 14571.665\ngini = 0.134\nsamples = 180\nvalue = [167, 13]\nclass = not_churn", fillcolor="#e78b48"] ;
640 -> 641 ;
642 [label="Tenure <= 5.5\ngini = 0.42\nsamples = 10\nvalue = [7, 3]\nclass = not_churn", fillcolor="#f0b78e"] ;
641 -> 642 ;
643 [label="Age <= 37.5\ngini = 0.48\nsamples = 5\nvalue = [2, 3]\nclass = churn", fillcolor="#bddef6"] ;
642 -> 643 ;
644 [label="Gender <= 0.5\ngini = 0.444\nsamples = 3\nvalue = [2, 1]\nclass = not_churn", fillcolor="#f2c09c"] ;
643 -> 644 ;
645 [label="gini = 0.0\nsamples = 1\nvalue = [0, 1]\nclass = churn", fillcolor="#399de5"] ;
644 -> 645 ;
646 [label="gini = 0.0\nsamples = 2\nvalue = [2, 0]\nclass = not_churn", fillcolor="#e58139"] ;
644 -> 646 ;
647 [label="gini = 0.0\nsamples = 2\nvalue = [0, 2]\nclass = churn", fillcolor="#399de5"] ;
643 -> 647 ;
648 [label="gini = 0.0\nsamples = 5\nvalue = [5, 0]\nclass = not_churn", fillcolor="#e58139"] ;
642 -> 648 ;
649 [label="HasCrCard <= 0.5\ngini = 0.111\nsamples = 170\nvalue = [160, 10]\nclass = not_churn", fillcolor="#e78945"] ;
641 -> 649 ;
650 [label="Age <= 39.5\ngini = 0.191\nsamples = 56\nvalue = [50, 6]\nclass = not_churn", fillcolor="#e89051"] ;
649 -> 650 ;
651 [label="CreditScore <= 777.5\ngini = 0.095\nsamples = 40\nvalue = [38, 2]\nclass = not_churn", fillcolor="#e68843"] ;
650 -> 651 ;
652 [label="CreditScore <= 527.0\ngini = 0.054\nsamples = 36\nvalue = [35, 1]\nclass = not_churn", fillcolor="#e6853f"] ;
651 -> 652 ;
653 [label="CreditScore <= 519.5\ngini = 0.278\nsamples = 6\nvalue = [5, 1]\nclass = not_churn", fillcolor="#ea9a61"] ;
652 -> 653 ;
654 [label="gini = 0.0\nsamples = 5\nvalue = [5, 0]\nclass = not_churn", fillcolor="#e58139"] ;
653 -> 654 ;
655 [label="gini = 0.0\nsamples = 1\nvalue = [0, 1]\nclass = churn", fillcolor="#399de5"] ;
653 -> 655 ;
656 [label="gini = 0.0\nsamples = 30\nvalue = [30, 0]\nclass = not_churn", fillcolor="#e58139"] ;
652 -> 656 ;
657 [label="CreditScore <= 782.5\ngini = 0.375\nsamples = 4\nvalue = [3, 1]\nclass = not_churn", fillcolor="#eeab7b"] ;
651 -> 657 ;
658 [label="gini = 0.0\nsamples = 1\nvalue = [0, 1]\nclass = churn", fillcolor="#399de5"] ;
657 -> 658 ;
659 [label="gini = 0.0\nsamples = 3\nvalue = [3, 0]\nclass = not_churn", fillcolor="#e58139"] ;
657 -> 659 ;
660 [label="Balance <= 94860.395\ngini = 0.375\nsamples = 16\nvalue = [12, 4]\nclass = not_churn", fillcolor="#eeab7b"] ;
650 -> 660 ;
661 [label="gini = 0.0\nsamples = 2\nvalue = [0, 2]\nclass = churn", fillcolor="#399de5"] ;
660 -> 661 ;
662 [label="Balance <= 149684.305\ngini = 0.245\nsamples = 14\nvalue = [12, 2]\nclass = not_churn", fillcolor="#e9965a"] ;
660 -> 662 ;
663 [label="Tenure <= 6.5\ngini = 0.142\nsamples = 13\nvalue = [12, 1]\nclass = not_churn", fillcolor="#e78c49"] ;
662 -> 663 ;
664 [label="gini = 0.0\nsamples = 10\nvalue = [10, 0]\nclass = not_churn", fillcolor="#e58139"] ;
663 -> 664 ;
665 [label="Balance <= 140932.312\ngini = 0.444\nsamples = 3\nvalue = [2, 1]\nclass = not_churn", fillcolor="#f2c09c"] ;
663 -> 665 ;
666 [label="gini = 0.0\nsamples = 1\nvalue = [0, 1]\nclass = churn", fillcolor="#399de5"] ;
665 -> 666 ;
667 [label="gini = 0.0\nsamples = 2\nvalue = [2, 0]\nclass = not_churn", fillcolor="#e58139"] ;
665 -> 667 ;
668 [label="gini = 0.0\nsamples = 1\nvalue = [0, 1]\nclass = churn", fillcolor="#399de5"] ;
662 -> 668 ;
669 [label="CreditScore <= 848.0\ngini = 0.068\nsamples = 114\nvalue = [110, 4]\nclass = not_churn", fillcolor="#e68640"] ;
649 -> 669 ;
670 [label="Gender <= 0.5\ngini = 0.052\nsamples = 112\nvalue = [109, 3]\nclass = not_churn", fillcolor="#e6843e"] ;
669 -> 670 ;
671 [label="Tenure <= 4.5\ngini = 0.12\nsamples = 47\nvalue = [44, 3]\nclass = not_churn", fillcolor="#e78a46"] ;
670 -> 671 ;
672 [label="gini = 0.0\nsamples = 26\nvalue = [26, 0]\nclass = not_churn", fillcolor="#e58139"] ;
671 -> 672 ;
673 [label="Age <= 37.5\ngini = 0.245\nsamples = 21\nvalue = [18, 3]\nclass = not_churn", fillcolor="#e9965a"] ;
671 -> 673 ;
674 [label="CreditScore <= 652.5\ngini = 0.48\nsamples = 5\nvalue = [3, 2]\nclass = not_churn", fillcolor="#f6d5bd"] ;
673 -> 674 ;
675 [label="gini = 0.0\nsamples = 2\nvalue = [2, 0]\nclass = not_churn", fillcolor="#e58139"] ;
674 -> 675 ;
676 [label="EstimatedSalary <= 43042.135\ngini = 0.444\nsamples = 3\nvalue = [1, 2]\nclass = churn", fillcolor="#9ccef2"] ;
674 -> 676 ;
677 [label="gini = 0.0\nsamples = 1\nvalue = [1, 0]\nclass = not_churn", fillcolor="#e58139"] ;
676 -> 677 ;
678 [label="gini = 0.0\nsamples = 2\nvalue = [0, 2]\nclass = churn", fillcolor="#399de5"] ;
676 -> 678 ;
679 [label="EstimatedSalary <= 80269.316\ngini = 0.117\nsamples = 16\nvalue = [15, 1]\nclass = not_churn", fillcolor="#e78946"] ;
673 -> 679 ;
680 [label="Age <= 38.5\ngini = 0.32\nsamples = 5\nvalue = [4, 1]\nclass = not_churn", fillcolor="#eca06a"] ;
679 -> 680 ;
681 [label="gini = 0.0\nsamples = 1\nvalue = [0, 1]\nclass = churn", fillcolor="#399de5"] ;
680 -> 681 ;
682 [label="gini = 0.0\nsamples = 4\nvalue = [4, 0]\nclass = not_churn", fillcolor="#e58139"] ;
680 -> 682 ;
683 [label="gini = 0.0\nsamples = 11\nvalue = [11, 0]\nclass = not_churn", fillcolor="#e58139"] ;
679 -> 683 ;
684 [label="gini = 0.0\nsamples = 65\nvalue = [65, 0]\nclass = not_churn", fillcolor="#e58139"] ;
670 -> 684 ;
685 [label="Balance <= 126482.105\ngini = 0.5\nsamples = 2\nvalue = [1, 1]\nclass = not_churn", fillcolor="#ffffff"] ;
669 -> 685 ;
686 [label="gini = 0.0\nsamples = 1\nvalue = [0, 1]\nclass = churn", fillcolor="#399de5"] ;
685 -> 686 ;
687 [label="gini = 0.0\nsamples = 1\nvalue = [1, 0]\nclass = not_churn", fillcolor="#e58139"] ;
685 -> 687 ;
688 [label="Tenure <= 2.5\ngini = 0.328\nsamples = 29\nvalue = [23, 6]\nclass = not_churn", fillcolor="#eca26d"] ;
640 -> 688 ;
689 [label="Balance <= 160899.477\ngini = 0.5\nsamples = 8\nvalue = [4, 4]\nclass = not_churn", fillcolor="#ffffff"] ;
688 -> 689 ;
690 [label="gini = 0.0\nsamples = 2\nvalue = [0, 2]\nclass = churn", fillcolor="#399de5"] ;
689 -> 690 ;
691 [label="Tenure <= 1.5\ngini = 0.444\nsamples = 6\nvalue = [4, 2]\nclass = not_churn", fillcolor="#f2c09c"] ;
689 -> 691 ;
692 [label="gini = 0.0\nsamples = 3\nvalue = [3, 0]\nclass = not_churn", fillcolor="#e58139"] ;
691 -> 692 ;
693 [label="Gender <= 0.5\ngini = 0.444\nsamples = 3\nvalue = [1, 2]\nclass = churn", fillcolor="#9ccef2"] ;
691 -> 693 ;
694 [label="gini = 0.0\nsamples = 2\nvalue = [0, 2]\nclass = churn", fillcolor="#399de5"] ;
693 -> 694 ;
695 [label="gini = 0.0\nsamples = 1\nvalue = [1, 0]\nclass = not_churn", fillcolor="#e58139"] ;
693 -> 695 ;
696 [label="Age <= 39.5\ngini = 0.172\nsamples = 21\nvalue = [19, 2]\nclass = not_churn", fillcolor="#e88e4e"] ;
688 -> 696 ;
697 [label="gini = 0.0\nsamples = 14\nvalue = [14, 0]\nclass = not_churn", fillcolor="#e58139"] ;
696 -> 697 ;
698 [label="EstimatedSalary <= 145359.25\ngini = 0.408\nsamples = 7\nvalue = [5, 2]\nclass = not_churn", fillcolor="#efb388"] ;
696 -> 698 ;
699 [label="gini = 0.0\nsamples = 4\nvalue = [4, 0]\nclass = not_churn", fillcolor="#e58139"] ;
698 -> 699 ;
700 [label="EstimatedSalary <= 184752.438\ngini = 0.444\nsamples = 3\nvalue = [1, 2]\nclass = churn", fillcolor="#9ccef2"] ;
698 -> 700 ;
701 [label="gini = 0.0\nsamples = 2\nvalue = [0, 2]\nclass = churn", fillcolor="#399de5"] ;
700 -> 701 ;
702 [label="gini = 0.0\nsamples = 1\nvalue = [1, 0]\nclass = not_churn", fillcolor="#e58139"] ;
700 -> 702 ;
703 [label="CreditScore <= 516.5\ngini = 0.409\nsamples = 122\nvalue = [87, 35]\nclass = not_churn", fillcolor="#efb489"] ;
603 -> 703 ;
704 [label="Balance <= 139188.984\ngini = 0.278\nsamples = 6\nvalue = [1, 5]\nclass = churn", fillcolor="#61b1ea"] ;
703 -> 704 ;
705 [label="gini = 0.0\nsamples = 5\nvalue = [0, 5]\nclass = churn", fillcolor="#399de5"] ;
704 -> 705 ;
706 [label="gini = 0.0\nsamples = 1\nvalue = [1, 0]\nclass = not_churn", fillcolor="#e58139"] ;
704 -> 706 ;
707 [label="Balance <= 96994.066\ngini = 0.383\nsamples = 116\nvalue = [86, 30]\nclass = not_churn", fillcolor="#eead7e"] ;
703 -> 707 ;
708 [label="gini = 0.0\nsamples = 22\nvalue = [22, 0]\nclass = not_churn", fillcolor="#e58139"] ;
707 -> 708 ;
709 [label="Balance <= 127608.867\ngini = 0.435\nsamples = 94\nvalue = [64, 30]\nclass = not_churn", fillcolor="#f1bc96"] ;
707 -> 709 ;
710 [label="EstimatedSalary <= 178326.289\ngini = 0.497\nsamples = 48\nvalue = [26, 22]\nclass = not_churn", fillcolor="#fbece1"] ;
709 -> 710 ;
711 [label="HasCrCard <= 0.5\ngini = 0.478\nsamples = 43\nvalue = [26, 17]\nclass = not_churn", fillcolor="#f6d3ba"] ;
710 -> 711 ;
712 [label="CreditScore <= 799.0\ngini = 0.165\nsamples = 11\nvalue = [10, 1]\nclass = not_churn", fillcolor="#e88e4d"] ;
711 -> 712 ;
713 [label="gini = 0.0\nsamples = 10\nvalue = [10, 0]\nclass = not_churn", fillcolor="#e58139"] ;
712 -> 713 ;
714 [label="gini = 0.0\nsamples = 1\nvalue = [0, 1]\nclass = churn", fillcolor="#399de5"] ;
712 -> 714 ;
715 [label="EstimatedSalary <= 154054.414\ngini = 0.5\nsamples = 32\nvalue = [16, 16]\nclass = not_churn", fillcolor="#ffffff"] ;
711 -> 715 ;
716 [label="Tenure <= 3.5\ngini = 0.49\nsamples = 28\nvalue = [12, 16]\nclass = churn", fillcolor="#cee6f8"] ;
715 -> 716 ;
717 [label="Balance <= 116866.23\ngini = 0.298\nsamples = 11\nvalue = [2, 9]\nclass = churn", fillcolor="#65b3eb"] ;
716 -> 717 ;
718 [label="gini = 0.0\nsamples = 9\nvalue = [0, 9]\nclass = churn", fillcolor="#399de5"] ;
717 -> 718 ;
719 [label="gini = 0.0\nsamples = 2\nvalue = [2, 0]\nclass = not_churn", fillcolor="#e58139"] ;
717 -> 719 ;
720 [label="EstimatedSalary <= 94581.73\ngini = 0.484\nsamples = 17\nvalue = [10, 7]\nclass = not_churn", fillcolor="#f7d9c4"] ;
716 -> 720 ;
721 [label="Age <= 38.0\ngini = 0.375\nsamples = 12\nvalue = [9, 3]\nclass = not_churn", fillcolor="#eeab7b"] ;
720 -> 721 ;
722 [label="EstimatedSalary <= 52396.07\ngini = 0.5\nsamples = 6\nvalue = [3, 3]\nclass = not_churn", fillcolor="#ffffff"] ;
721 -> 722 ;
723 [label="gini = 0.0\nsamples = 2\nvalue = [0, 2]\nclass = churn", fillcolor="#399de5"] ;
722 -> 723 ;
724 [label="CreditScore <= 783.0\ngini = 0.375\nsamples = 4\nvalue = [3, 1]\nclass = not_churn", fillcolor="#eeab7b"] ;
722 -> 724 ;
725 [label="gini = 0.0\nsamples = 3\nvalue = [3, 0]\nclass = not_churn", fillcolor="#e58139"] ;
724 -> 725 ;
726 [label="gini = 0.0\nsamples = 1\nvalue = [0, 1]\nclass = churn", fillcolor="#399de5"] ;
724 -> 726 ;
727 [label="gini = 0.0\nsamples = 6\nvalue = [6, 0]\nclass = not_churn", fillcolor="#e58139"] ;
721 -> 727 ;
728 [label="Tenure <= 9.0\ngini = 0.32\nsamples = 5\nvalue = [1, 4]\nclass = churn", fillcolor="#6ab6ec"] ;
720 -> 728 ;
729 [label="gini = 0.0\nsamples = 4\nvalue = [0, 4]\nclass = churn", fillcolor="#399de5"] ;
728 -> 729 ;
730 [label="gini = 0.0\nsamples = 1\nvalue = [1, 0]\nclass = not_churn", fillcolor="#e58139"] ;
728 -> 730 ;
731 [label="gini = 0.0\nsamples = 4\nvalue = [4, 0]\nclass = not_churn", fillcolor="#e58139"] ;
715 -> 731 ;
732 [label="gini = 0.0\nsamples = 5\nvalue = [0, 5]\nclass = churn", fillcolor="#399de5"] ;
710 -> 732 ;
733 [label="Age <= 38.5\ngini = 0.287\nsamples = 46\nvalue = [38, 8]\nclass = not_churn", fillcolor="#ea9c63"] ;
709 -> 733 ;
734 [label="Balance <= 141042.219\ngini = 0.175\nsamples = 31\nvalue = [28, 3]\nclass = not_churn", fillcolor="#e88e4e"] ;
733 -> 734 ;
735 [label="Balance <= 139600.789\ngini = 0.337\nsamples = 14\nvalue = [11, 3]\nclass = not_churn", fillcolor="#eca36f"] ;
734 -> 735 ;
736 [label="Gender <= 0.5\ngini = 0.26\nsamples = 13\nvalue = [11, 2]\nclass = not_churn", fillcolor="#ea985d"] ;
735 -> 736 ;
737 [label="CreditScore <= 612.0\ngini = 0.444\nsamples = 6\nvalue = [4, 2]\nclass = not_churn", fillcolor="#f2c09c"] ;
736 -> 737 ;
738 [label="gini = 0.0\nsamples = 3\nvalue = [3, 0]\nclass = not_churn", fillcolor="#e58139"] ;
737 -> 738 ;
739 [label="Tenure <= 6.5\ngini = 0.444\nsamples = 3\nvalue = [1, 2]\nclass = churn", fillcolor="#9ccef2"] ;
737 -> 739 ;
740 [label="gini = 0.0\nsamples = 2\nvalue = [0, 2]\nclass = churn", fillcolor="#399de5"] ;
739 -> 740 ;
741 [label="gini = 0.0\nsamples = 1\nvalue = [1, 0]\nclass = not_churn", fillcolor="#e58139"] ;
739 -> 741 ;
742 [label="gini = 0.0\nsamples = 7\nvalue = [7, 0]\nclass = not_churn", fillcolor="#e58139"] ;
736 -> 742 ;
743 [label="gini = 0.0\nsamples = 1\nvalue = [0, 1]\nclass = churn", fillcolor="#399de5"] ;
735 -> 743 ;
744 [label="gini = 0.0\nsamples = 17\nvalue = [17, 0]\nclass = not_churn", fillcolor="#e58139"] ;
734 -> 744 ;
745 [label="Balance <= 137288.516\ngini = 0.444\nsamples = 15\nvalue = [10, 5]\nclass = not_churn", fillcolor="#f2c09c"] ;
733 -> 745 ;
746 [label="gini = 0.0\nsamples = 6\nvalue = [6, 0]\nclass = not_churn", fillcolor="#e58139"] ;
745 -> 746 ;
747 [label="HasCrCard <= 0.5\ngini = 0.494\nsamples = 9\nvalue = [4, 5]\nclass = churn", fillcolor="#d7ebfa"] ;
745 -> 747 ;
748 [label="EstimatedSalary <= 60136.199\ngini = 0.375\nsamples = 4\nvalue = [3, 1]\nclass = not_churn", fillcolor="#eeab7b"] ;
747 -> 748 ;
749 [label="gini = 0.0\nsamples = 1\nvalue = [0, 1]\nclass = churn", fillcolor="#399de5"] ;
748 -> 749 ;
750 [label="gini = 0.0\nsamples = 3\nvalue = [3, 0]\nclass = not_churn", fillcolor="#e58139"] ;
748 -> 750 ;
751 [label="Balance <= 154606.164\ngini = 0.32\nsamples = 5\nvalue = [1, 4]\nclass = churn", fillcolor="#6ab6ec"] ;
747 -> 751 ;
752 [label="gini = 0.0\nsamples = 4\nvalue = [0, 4]\nclass = churn", fillcolor="#399de5"] ;
751 -> 752 ;
753 [label="gini = 0.0\nsamples = 1\nvalue = [1, 0]\nclass = not_churn", fillcolor="#e58139"] ;
751 -> 753 ;
754 [label="Balance <= 76728.137\ngini = 0.084\nsamples = 136\nvalue = [130, 6]\nclass = not_churn", fillcolor="#e68742"] ;
602 -> 754 ;
755 [label="EstimatedSalary <= 14278.31\ngini = 0.293\nsamples = 28\nvalue = [23, 5]\nclass = not_churn", fillcolor="#eb9c64"] ;
754 -> 755 ;
756 [label="EstimatedSalary <= 4947.945\ngini = 0.444\nsamples = 3\nvalue = [1, 2]\nclass = churn", fillcolor="#9ccef2"] ;
755 -> 756 ;
757 [label="gini = 0.0\nsamples = 1\nvalue = [1, 0]\nclass = not_churn", fillcolor="#e58139"] ;
756 -> 757 ;
758 [label="gini = 0.0\nsamples = 2\nvalue = [0, 2]\nclass = churn", fillcolor="#399de5"] ;
756 -> 758 ;
759 [label="CreditScore <= 518.5\ngini = 0.211\nsamples = 25\nvalue = [22, 3]\nclass = not_churn", fillcolor="#e99254"] ;
755 -> 759 ;
760 [label="gini = 0.0\nsamples = 1\nvalue = [0, 1]\nclass = churn", fillcolor="#399de5"] ;
759 -> 760 ;
761 [label="Balance <= 66284.006\ngini = 0.153\nsamples = 24\nvalue = [22, 2]\nclass = not_churn", fillcolor="#e78c4b"] ;
759 -> 761 ;
762 [label="Age <= 35.5\ngini = 0.087\nsamples = 22\nvalue = [21, 1]\nclass = not_churn", fillcolor="#e68742"] ;
761 -> 762 ;
763 [label="Tenure <= 2.0\ngini = 0.5\nsamples = 2\nvalue = [1, 1]\nclass = not_churn", fillcolor="#ffffff"] ;
762 -> 763 ;
764 [label="gini = 0.0\nsamples = 1\nvalue = [0, 1]\nclass = churn", fillcolor="#399de5"] ;
763 -> 764 ;
765 [label="gini = 0.0\nsamples = 1\nvalue = [1, 0]\nclass = not_churn", fillcolor="#e58139"] ;
763 -> 765 ;
766 [label="gini = 0.0\nsamples = 20\nvalue = [20, 0]\nclass = not_churn", fillcolor="#e58139"] ;
762 -> 766 ;
767 [label="Tenure <= 5.5\ngini = 0.5\nsamples = 2\nvalue = [1, 1]\nclass = not_churn", fillcolor="#ffffff"] ;
761 -> 767 ;
768 [label="gini = 0.0\nsamples = 1\nvalue = [0, 1]\nclass = churn", fillcolor="#399de5"] ;
767 -> 768 ;
769 [label="gini = 0.0\nsamples = 1\nvalue = [1, 0]\nclass = not_churn", fillcolor="#e58139"] ;
767 -> 769 ;
770 [label="Tenure <= 9.5\ngini = 0.018\nsamples = 108\nvalue = [107, 1]\nclass = not_churn", fillcolor="#e5823b"] ;
754 -> 770 ;
771 [label="gini = 0.0\nsamples = 100\nvalue = [100, 0]\nclass = not_churn", fillcolor="#e58139"] ;
770 -> 771 ;
772 [label="EstimatedSalary <= 64954.686\ngini = 0.219\nsamples = 8\nvalue = [7, 1]\nclass = not_churn", fillcolor="#e99355"] ;
770 -> 772 ;
773 [label="EstimatedSalary <= 35116.465\ngini = 0.5\nsamples = 2\nvalue = [1, 1]\nclass = not_churn", fillcolor="#ffffff"] ;
772 -> 773 ;
774 [label="gini = 0.0\nsamples = 1\nvalue = [1, 0]\nclass = not_churn", fillcolor="#e58139"] ;
773 -> 774 ;
775 [label="gini = 0.0\nsamples = 1\nvalue = [0, 1]\nclass = churn", fillcolor="#399de5"] ;
773 -> 775 ;
776 [label="gini = 0.0\nsamples = 6\nvalue = [6, 0]\nclass = not_churn", fillcolor="#e58139"] ;
772 -> 776 ;
777 [label="IsActiveMember <= 0.5\ngini = 0.461\nsamples = 222\nvalue = [142, 80]\nclass = not_churn", fillcolor="#f4c8a9"] ;
3 -> 777 ;
778 [label="CreditScore <= 504.5\ngini = 0.495\nsamples = 113\nvalue = [62, 51]\nclass = not_churn", fillcolor="#fae9dc"] ;
777 -> 778 ;
779 [label="gini = 0.0\nsamples = 4\nvalue = [0, 4]\nclass = churn", fillcolor="#399de5"] ;
778 -> 779 ;
780 [label="Geography <= 0.5\ngini = 0.491\nsamples = 109\nvalue = [62, 47]\nclass = not_churn", fillcolor="#f9e1cf"] ;
778 -> 780 ;
781 [label="HasCrCard <= 0.5\ngini = 0.44\nsamples = 46\nvalue = [31, 15]\nclass = not_churn", fillcolor="#f2be99"] ;
780 -> 781 ;
782 [label="gini = 0.0\nsamples = 11\nvalue = [11, 0]\nclass = not_churn", fillcolor="#e58139"] ;
781 -> 782 ;
783 [label="EstimatedSalary <= 39393.426\ngini = 0.49\nsamples = 35\nvalue = [20, 15]\nclass = not_churn", fillcolor="#f8e0ce"] ;
781 -> 783 ;
784 [label="gini = 0.0\nsamples = 4\nvalue = [4, 0]\nclass = not_churn", fillcolor="#e58139"] ;
783 -> 784 ;
785 [label="Tenure <= 6.5\ngini = 0.499\nsamples = 31\nvalue = [16, 15]\nclass = not_churn", fillcolor="#fdf7f3"] ;
783 -> 785 ;
786 [label="Balance <= 86953.711\ngini = 0.48\nsamples = 20\nvalue = [8, 12]\nclass = churn", fillcolor="#bddef6"] ;
785 -> 786 ;
787 [label="gini = 0.0\nsamples = 5\nvalue = [0, 5]\nclass = churn", fillcolor="#399de5"] ;
786 -> 787 ;
788 [label="CreditScore <= 578.5\ngini = 0.498\nsamples = 15\nvalue = [8, 7]\nclass = not_churn", fillcolor="#fcefe6"] ;
786 -> 788 ;
789 [label="gini = 0.0\nsamples = 3\nvalue = [0, 3]\nclass = churn", fillcolor="#399de5"] ;
788 -> 789 ;
790 [label="Tenure <= 5.5\ngini = 0.444\nsamples = 12\nvalue = [8, 4]\nclass = not_churn", fillcolor="#f2c09c"] ;
788 -> 790 ;
791 [label="Balance <= 129676.402\ngini = 0.397\nsamples = 11\nvalue = [8, 3]\nclass = not_churn", fillcolor="#efb083"] ;
790 -> 791 ;
792 [label="gini = 0.0\nsamples = 5\nvalue = [5, 0]\nclass = not_churn", fillcolor="#e58139"] ;
791 -> 792 ;
793 [label="Balance <= 147808.219\ngini = 0.5\nsamples = 6\nvalue = [3, 3]\nclass = not_churn", fillcolor="#ffffff"] ;
791 -> 793 ;
794 [label="CreditScore <= 612.0\ngini = 0.375\nsamples = 4\nvalue = [1, 3]\nclass = churn", fillcolor="#7bbeee"] ;
793 -> 794 ;
795 [label="gini = 0.0\nsamples = 1\nvalue = [1, 0]\nclass = not_churn", fillcolor="#e58139"] ;
794 -> 795 ;
796 [label="gini = 0.0\nsamples = 3\nvalue = [0, 3]\nclass = churn", fillcolor="#399de5"] ;
794 -> 796 ;
797 [label="gini = 0.0\nsamples = 2\nvalue = [2, 0]\nclass = not_churn", fillcolor="#e58139"] ;
793 -> 797 ;
798 [label="gini = 0.0\nsamples = 1\nvalue = [0, 1]\nclass = churn", fillcolor="#399de5"] ;
790 -> 798 ;
799 [label="Balance <= 166644.664\ngini = 0.397\nsamples = 11\nvalue = [8, 3]\nclass = not_churn", fillcolor="#efb083"] ;
785 -> 799 ;
800 [label="EstimatedSalary <= 70562.367\ngini = 0.198\nsamples = 9\nvalue = [8, 1]\nclass = not_churn", fillcolor="#e89152"] ;
799 -> 800 ;
801 [label="EstimatedSalary <= 64492.215\ngini = 0.444\nsamples = 3\nvalue = [2, 1]\nclass = not_churn", fillcolor="#f2c09c"] ;
800 -> 801 ;
802 [label="gini = 0.0\nsamples = 2\nvalue = [2, 0]\nclass = not_churn", fillcolor="#e58139"] ;
801 -> 802 ;
803 [label="gini = 0.0\nsamples = 1\nvalue = [0, 1]\nclass = churn", fillcolor="#399de5"] ;
801 -> 803 ;
804 [label="gini = 0.0\nsamples = 6\nvalue = [6, 0]\nclass = not_churn", fillcolor="#e58139"] ;
800 -> 804 ;
805 [label="gini = 0.0\nsamples = 2\nvalue = [0, 2]\nclass = churn", fillcolor="#399de5"] ;
799 -> 805 ;
806 [label="Tenure <= 7.5\ngini = 0.5\nsamples = 63\nvalue = [31, 32]\nclass = churn", fillcolor="#f9fcfe"] ;
780 -> 806 ;
807 [label="Gender <= 0.5\ngini = 0.474\nsamples = 44\nvalue = [27, 17]\nclass = not_churn", fillcolor="#f5d0b6"] ;
806 -> 807 ;
808 [label="Balance <= 116503.414\ngini = 0.48\nsamples = 20\nvalue = [8, 12]\nclass = churn", fillcolor="#bddef6"] ;
807 -> 808 ;
809 [label="EstimatedSalary <= 140229.723\ngini = 0.444\nsamples = 9\nvalue = [6, 3]\nclass = not_churn", fillcolor="#f2c09c"] ;
808 -> 809 ;
810 [label="EstimatedSalary <= 16752.4\ngini = 0.245\nsamples = 7\nvalue = [6, 1]\nclass = not_churn", fillcolor="#e9965a"] ;
809 -> 810 ;
811 [label="gini = 0.0\nsamples = 1\nvalue = [0, 1]\nclass = churn", fillcolor="#399de5"] ;
810 -> 811 ;
812 [label="gini = 0.0\nsamples = 6\nvalue = [6, 0]\nclass = not_churn", fillcolor="#e58139"] ;
810 -> 812 ;
813 [label="gini = 0.0\nsamples = 2\nvalue = [0, 2]\nclass = churn", fillcolor="#399de5"] ;
809 -> 813 ;
814 [label="EstimatedSalary <= 4880.915\ngini = 0.298\nsamples = 11\nvalue = [2, 9]\nclass = churn", fillcolor="#65b3eb"] ;
808 -> 814 ;
815 [label="gini = 0.0\nsamples = 1\nvalue = [1, 0]\nclass = not_churn", fillcolor="#e58139"] ;
814 -> 815 ;
816 [label="Balance <= 153505.586\ngini = 0.18\nsamples = 10\nvalue = [1, 9]\nclass = churn", fillcolor="#4fa8e8"] ;
814 -> 816 ;
817 [label="gini = 0.0\nsamples = 8\nvalue = [0, 8]\nclass = churn", fillcolor="#399de5"] ;
816 -> 817 ;
818 [label="EstimatedSalary <= 73922.994\ngini = 0.5\nsamples = 2\nvalue = [1, 1]\nclass = not_churn", fillcolor="#ffffff"] ;
816 -> 818 ;
819 [label="gini = 0.0\nsamples = 1\nvalue = [1, 0]\nclass = not_churn", fillcolor="#e58139"] ;
818 -> 819 ;
820 [label="gini = 0.0\nsamples = 1\nvalue = [0, 1]\nclass = churn", fillcolor="#399de5"] ;
818 -> 820 ;
821 [label="EstimatedSalary <= 45085.4\ngini = 0.33\nsamples = 24\nvalue = [19, 5]\nclass = not_churn", fillcolor="#eca26d"] ;
807 -> 821 ;
822 [label="Tenure <= 2.5\ngini = 0.49\nsamples = 7\nvalue = [3, 4]\nclass = churn", fillcolor="#cee6f8"] ;
821 -> 822 ;
823 [label="gini = 0.0\nsamples = 3\nvalue = [0, 3]\nclass = churn", fillcolor="#399de5"] ;
822 -> 823 ;
824 [label="CreditScore <= 673.5\ngini = 0.375\nsamples = 4\nvalue = [3, 1]\nclass = not_churn", fillcolor="#eeab7b"] ;
822 -> 824 ;
825 [label="gini = 0.0\nsamples = 2\nvalue = [2, 0]\nclass = not_churn", fillcolor="#e58139"] ;
824 -> 825 ;
826 [label="Balance <= 113294.566\ngini = 0.5\nsamples = 2\nvalue = [1, 1]\nclass = not_churn", fillcolor="#ffffff"] ;
824 -> 826 ;
827 [label="gini = 0.0\nsamples = 1\nvalue = [0, 1]\nclass = churn", fillcolor="#399de5"] ;
826 -> 827 ;
828 [label="gini = 0.0\nsamples = 1\nvalue = [1, 0]\nclass = not_churn", fillcolor="#e58139"] ;
826 -> 828 ;
829 [label="Balance <= 61531.184\ngini = 0.111\nsamples = 17\nvalue = [16, 1]\nclass = not_churn", fillcolor="#e78945"] ;
821 -> 829 ;
830 [label="Balance <= 20736.664\ngini = 0.375\nsamples = 4\nvalue = [3, 1]\nclass = not_churn", fillcolor="#eeab7b"] ;
829 -> 830 ;
831 [label="gini = 0.0\nsamples = 3\nvalue = [3, 0]\nclass = not_churn", fillcolor="#e58139"] ;
830 -> 831 ;
